tree
version=v4
num_class=1
num_tree_per_iteration=1
label_index=0
max_feature_idx=2633
objective=binary sigmoid:1
feature_names=Column_0 Column_1 Column_2 Column_3 Column_4 Column_5 Column_6 Column_7 Column_8 Column_9 Column_10 Column_11 Column_12 Column_13 Column_14 Column_15 Column_16 Column_17 Column_18 Column_19 Column_20 Column_21 Column_22 Column_23 Column_24 Column_25 Column_26 Column_27 Column_28 Column_29 Column_30 Column_31 Column_32 Column_33 Column_34 Column_35 Column_36 Column_37 Column_38 Column_39 Column_40 Column_41 Column_42 Column_43 Column_44 Column_45 Column_46 Column_47 Column_48 Column_49 Column_50 Column_51 Column_52 Column_53 Column_54 Column_55 Column_56 Column_57 Column_58 Column_59 Column_60 Column_61 Column_62 Column_63 Column_64 Column_65 Column_66 Column_67 Column_68 Column_69 Column_70 Column_71 Column_72 Column_73 Column_74 Column_75 Column_76 Column_77 Column_78 Column_79 Column_80 Column_81 Column_82 Column_83 Column_84 Column_85 Column_86 Column_87 Column_88 Column_89 Column_90 Column_91 Column_92 Column_93 Column_94 Column_95 Column_96 Column_97 Column_98 Column_99 Column_100 Column_101 Column_102 Column_103 Column_104 Column_105 Column_106 Column_107 Column_108 Column_109 Column_110 Column_111 Column_112 Column_113 Column_114 Column_115 Column_116 Column_117 Column_118 Column_119 Column_120 Column_121 Column_122 Column_123 Column_124 Column_125 Column_126 Column_127 Column_128 Column_129 Column_130 Column_131 Column_132 Column_133 Column_134 Column_135 Column_136 Column_137 Column_138 Column_139 Column_140 Column_141 Column_142 Column_143 Column_144 Column_145 Column_146 Column_147 Column_148 Column_149 Column_150 Column_151 Column_152 Column_153 Column_154 Column_155 Column_156 Column_157 Column_158 Column_159 Column_160 Column_161 Column_162 Column_163 Column_164 Column_165 Column_166 Column_167 Column_168 Column_169 Column_170 Column_171 Column_172 Column_173 Column_174 Column_175 Column_176 Column_177 Column_178 Column_179 Column_180 Column_181 Column_182 Column_183 Column_184 Column_185 Column_186 Column_187 Column_188 Column_189 Column_190 Column_191 Column_192 Column_193 Column_194 Column_195 Column_196 Column_197 Column_198 Column_199 Column_200 Column_201 Column_202 Column_203 Column_204 Column_205 Column_206 Column_207 Column_208 Column_209 Column_210 Column_211 Column_212 Column_213 Column_214 Column_215 Column_216 Column_217 Column_218 Column_219 Column_220 Column_221 Column_222 Column_223 Column_224 Column_225 Column_226 Column_227 Column_228 Column_229 Column_230 Column_231 Column_232 Column_233 Column_234 Column_235 Column_236 Column_237 Column_238 Column_239 Column_240 Column_241 Column_242 Column_243 Column_244 Column_245 Column_246 Column_247 Column_248 Column_249 Column_250 Column_251 Column_252 Column_253 Column_254 Column_255 Column_256 Column_257 Column_258 Column_259 Column_260 Column_261 Column_262 Column_263 Column_264 Column_265 Column_266 Column_267 Column_268 Column_269 Column_270 Column_271 Column_272 Column_273 Column_274 Column_275 Column_276 Column_277 Column_278 Column_279 Column_280 Column_281 Column_282 Column_283 Column_284 Column_285 Column_286 Column_287 Column_288 Column_289 Column_290 Column_291 Column_292 Column_293 Column_294 Column_295 Column_296 Column_297 Column_298 Column_299 Column_300 Column_301 Column_302 Column_303 Column_304 Column_305 Column_306 Column_307 Column_308 Column_309 Column_310 Column_311 Column_312 Column_313 Column_314 Column_315 Column_316 Column_317 Column_318 Column_319 Column_320 Column_321 Column_322 Column_323 Column_324 Column_325 Column_326 Column_327 Column_328 Column_329 Column_330 Column_331 Column_332 Column_333 Column_334 Column_335 Column_336 Column_337 Column_338 Column_339 Column_340 Column_341 Column_342 Column_343 Column_344 Column_345 Column_346 Column_347 Column_348 Column_349 Column_350 Column_351 Column_352 Column_353 Column_354 Column_355 Column_356 Column_357 Column_358 Column_359 Column_360 Column_361 Column_362 Column_363 Column_364 Column_365 Column_366 Column_367 Column_368 Column_369 Column_370 Column_371 Column_372 Column_373 Column_374 Column_375 Column_376 Column_377 Column_378 Column_379 Column_380 Column_381 Column_382 Column_383 Column_384 Column_385 Column_386 Column_387 Column_388 Column_389 Column_390 Column_391 Column_392 Column_393 Column_394 Column_395 Column_396 Column_397 Column_398 Column_399 Column_400 Column_401 Column_402 Column_403 Column_404 Column_405 Column_406 Column_407 Column_408 Column_409 Column_410 Column_411 Column_412 Column_413 Column_414 Column_415 Column_416 Column_417 Column_418 Column_419 Column_420 Column_421 Column_422 Column_423 Column_424 Column_425 Column_426 Column_427 Column_428 Column_429 Column_430 Column_431 Column_432 Column_433 Column_434 Column_435 Column_436 Column_437 Column_438 Column_439 Column_440 Column_441 Column_442 Column_443 Column_444 Column_445 Column_446 Column_447 Column_448 Column_449 Column_450 Column_451 Column_452 Column_453 Column_454 Column_455 Column_456 Column_457 Column_458 Column_459 Column_460 Column_461 Column_462 Column_463 Column_464 Column_465 Column_466 Column_467 Column_468 Column_469 Column_470 Column_471 Column_472 Column_473 Column_474 Column_475 Column_476 Column_477 Column_478 Column_479 Column_480 Column_481 Column_482 Column_483 Column_484 Column_485 Column_486 Column_487 Column_488 Column_489 Column_490 Column_491 Column_492 Column_493 Column_494 Column_495 Column_496 Column_497 Column_498 Column_499 Column_500 Column_501 Column_502 Column_503 Column_504 Column_505 Column_506 Column_507 Column_508 Column_509 Column_510 Column_511 Column_512 Column_513 Column_514 Column_515 Column_516 Column_517 Column_518 Column_519 Column_520 Column_521 Column_522 Column_523 Column_524 Column_525 Column_526 Column_527 Column_528 Column_529 Column_530 Column_531 Column_532 Column_533 Column_534 Column_535 Column_536 Column_537 Column_538 Column_539 Column_540 Column_541 Column_542 Column_543 Column_544 Column_545 Column_546 Column_547 Column_548 Column_549 Column_550 Column_551 Column_552 Column_553 Column_554 Column_555 Column_556 Column_557 Column_558 Column_559 Column_560 Column_561 Column_562 Column_563 Column_564 Column_565 Column_566 Column_567 Column_568 Column_569 Column_570 Column_571 Column_572 Column_573 Column_574 Column_575 Column_576 Column_577 Column_578 Column_579 Column_580 Column_581 Column_582 Column_583 Column_584 Column_585 Column_586 Column_587 Column_588 Column_589 Column_590 Column_591 Column_592 Column_593 Column_594 Column_595 Column_596 Column_597 Column_598 Column_599 Column_600 Column_601 Column_602 Column_603 Column_604 Column_605 Column_606 Column_607 Column_608 Column_609 Column_610 Column_611 Column_612 Column_613 Column_614 Column_615 Column_616 Column_617 Column_618 Column_619 Column_620 Column_621 Column_622 Column_623 Column_624 Column_625 Column_626 Column_627 Column_628 Column_629 Column_630 Column_631 Column_632 Column_633 Column_634 Column_635 Column_636 Column_637 Column_638 Column_639 Column_640 Column_641 Column_642 Column_643 Column_644 Column_645 Column_646 Column_647 Column_648 Column_649 Column_650 Column_651 Column_652 Column_653 Column_654 Column_655 Column_656 Column_657 Column_658 Column_659 Column_660 Column_661 Column_662 Column_663 Column_664 Column_665 Column_666 Column_667 Column_668 Column_669 Column_670 Column_671 Column_672 Column_673 Column_674 Column_675 Column_676 Column_677 Column_678 Column_679 Column_680 Column_681 Column_682 Column_683 Column_684 Column_685 Column_686 Column_687 Column_688 Column_689 Column_690 Column_691 Column_692 Column_693 Column_694 Column_695 Column_696 Column_697 Column_698 Column_699 Column_700 Column_701 Column_702 Column_703 Column_704 Column_705 Column_706 Column_707 Column_708 Column_709 Column_710 Column_711 Column_712 Column_713 Column_714 Column_715 Column_716 Column_717 Column_718 Column_719 Column_720 Column_721 Column_722 Column_723 Column_724 Column_725 Column_726 Column_727 Column_728 Column_729 Column_730 Column_731 Column_732 Column_733 Column_734 Column_735 Column_736 Column_737 Column_738 Column_739 Column_740 Column_741 Column_742 Column_743 Column_744 Column_745 Column_746 Column_747 Column_748 Column_749 Column_750 Column_751 Column_752 Column_753 Column_754 Column_755 Column_756 Column_757 Column_758 Column_759 Column_760 Column_761 Column_762 Column_763 Column_764 Column_765 Column_766 Column_767 Column_768 Column_769 Column_770 Column_771 Column_772 Column_773 Column_774 Column_775 Column_776 Column_777 Column_778 Column_779 Column_780 Column_781 Column_782 Column_783 Column_784 Column_785 Column_786 Column_787 Column_788 Column_789 Column_790 Column_791 Column_792 Column_793 Column_794 Column_795 Column_796 Column_797 Column_798 Column_799 Column_800 Column_801 Column_802 Column_803 Column_804 Column_805 Column_806 Column_807 Column_808 Column_809 Column_810 Column_811 Column_812 Column_813 Column_814 Column_815 Column_816 Column_817 Column_818 Column_819 Column_820 Column_821 Column_822 Column_823 Column_824 Column_825 Column_826 Column_827 Column_828 Column_829 Column_830 Column_831 Column_832 Column_833 Column_834 Column_835 Column_836 Column_837 Column_838 Column_839 Column_840 Column_841 Column_842 Column_843 Column_844 Column_845 Column_846 Column_847 Column_848 Column_849 Column_850 Column_851 Column_852 Column_853 Column_854 Column_855 Column_856 Column_857 Column_858 Column_859 Column_860 Column_861 Column_862 Column_863 Column_864 Column_865 Column_866 Column_867 Column_868 Column_869 Column_870 Column_871 Column_872 Column_873 Column_874 Column_875 Column_876 Column_877 Column_878 Column_879 Column_880 Column_881 Column_882 Column_883 Column_884 Column_885 Column_886 Column_887 Column_888 Column_889 Column_890 Column_891 Column_892 Column_893 Column_894 Column_895 Column_896 Column_897 Column_898 Column_899 Column_900 Column_901 Column_902 Column_903 Column_904 Column_905 Column_906 Column_907 Column_908 Column_909 Column_910 Column_911 Column_912 Column_913 Column_914 Column_915 Column_916 Column_917 Column_918 Column_919 Column_920 Column_921 Column_922 Column_923 Column_924 Column_925 Column_926 Column_927 Column_928 Column_929 Column_930 Column_931 Column_932 Column_933 Column_934 Column_935 Column_936 Column_937 Column_938 Column_939 Column_940 Column_941 Column_942 Column_943 Column_944 Column_945 Column_946 Column_947 Column_948 Column_949 Column_950 Column_951 Column_952 Column_953 Column_954 Column_955 Column_956 Column_957 Column_958 Column_959 Column_960 Column_961 Column_962 Column_963 Column_964 Column_965 Column_966 Column_967 Column_968 Column_969 Column_970 Column_971 Column_972 Column_973 Column_974 Column_975 Column_976 Column_977 Column_978 Column_979 Column_980 Column_981 Column_982 Column_983 Column_984 Column_985 Column_986 Column_987 Column_988 Column_989 Column_990 Column_991 Column_992 Column_993 Column_994 Column_995 Column_996 Column_997 Column_998 Column_999 Column_1000 Column_1001 Column_1002 Column_1003 Column_1004 Column_1005 Column_1006 Column_1007 Column_1008 Column_1009 Column_1010 Column_1011 Column_1012 Column_1013 Column_1014 Column_1015 Column_1016 Column_1017 Column_1018 Column_1019 Column_1020 Column_1021 Column_1022 Column_1023 Column_1024 Column_1025 Column_1026 Column_1027 Column_1028 Column_1029 Column_1030 Column_1031 Column_1032 Column_1033 Column_1034 Column_1035 Column_1036 Column_1037 Column_1038 Column_1039 Column_1040 Column_1041 Column_1042 Column_1043 Column_1044 Column_1045 Column_1046 Column_1047 Column_1048 Column_1049 Column_1050 Column_1051 Column_1052 Column_1053 Column_1054 Column_1055 Column_1056 Column_1057 Column_1058 Column_1059 Column_1060 Column_1061 Column_1062 Column_1063 Column_1064 Column_1065 Column_1066 Column_1067 Column_1068 Column_1069 Column_1070 Column_1071 Column_1072 Column_1073 Column_1074 Column_1075 Column_1076 Column_1077 Column_1078 Column_1079 Column_1080 Column_1081 Column_1082 Column_1083 Column_1084 Column_1085 Column_1086 Column_1087 Column_1088 Column_1089 Column_1090 Column_1091 Column_1092 Column_1093 Column_1094 Column_1095 Column_1096 Column_1097 Column_1098 Column_1099 Column_1100 Column_1101 Column_1102 Column_1103 Column_1104 Column_1105 Column_1106 Column_1107 Column_1108 Column_1109 Column_1110 Column_1111 Column_1112 Column_1113 Column_1114 Column_1115 Column_1116 Column_1117 Column_1118 Column_1119 Column_1120 Column_1121 Column_1122 Column_1123 Column_1124 Column_1125 Column_1126 Column_1127 Column_1128 Column_1129 Column_1130 Column_1131 Column_1132 Column_1133 Column_1134 Column_1135 Column_1136 Column_1137 Column_1138 Column_1139 Column_1140 Column_1141 Column_1142 Column_1143 Column_1144 Column_1145 Column_1146 Column_1147 Column_1148 Column_1149 Column_1150 Column_1151 Column_1152 Column_1153 Column_1154 Column_1155 Column_1156 Column_1157 Column_1158 Column_1159 Column_1160 Column_1161 Column_1162 Column_1163 Column_1164 Column_1165 Column_1166 Column_1167 Column_1168 Column_1169 Column_1170 Column_1171 Column_1172 Column_1173 Column_1174 Column_1175 Column_1176 Column_1177 Column_1178 Column_1179 Column_1180 Column_1181 Column_1182 Column_1183 Column_1184 Column_1185 Column_1186 Column_1187 Column_1188 Column_1189 Column_1190 Column_1191 Column_1192 Column_1193 Column_1194 Column_1195 Column_1196 Column_1197 Column_1198 Column_1199 Column_1200 Column_1201 Column_1202 Column_1203 Column_1204 Column_1205 Column_1206 Column_1207 Column_1208 Column_1209 Column_1210 Column_1211 Column_1212 Column_1213 Column_1214 Column_1215 Column_1216 Column_1217 Column_1218 Column_1219 Column_1220 Column_1221 Column_1222 Column_1223 Column_1224 Column_1225 Column_1226 Column_1227 Column_1228 Column_1229 Column_1230 Column_1231 Column_1232 Column_1233 Column_1234 Column_1235 Column_1236 Column_1237 Column_1238 Column_1239 Column_1240 Column_1241 Column_1242 Column_1243 Column_1244 Column_1245 Column_1246 Column_1247 Column_1248 Column_1249 Column_1250 Column_1251 Column_1252 Column_1253 Column_1254 Column_1255 Column_1256 Column_1257 Column_1258 Column_1259 Column_1260 Column_1261 Column_1262 Column_1263 Column_1264 Column_1265 Column_1266 Column_1267 Column_1268 Column_1269 Column_1270 Column_1271 Column_1272 Column_1273 Column_1274 Column_1275 Column_1276 Column_1277 Column_1278 Column_1279 Column_1280 Column_1281 Column_1282 Column_1283 Column_1284 Column_1285 Column_1286 Column_1287 Column_1288 Column_1289 Column_1290 Column_1291 Column_1292 Column_1293 Column_1294 Column_1295 Column_1296 Column_1297 Column_1298 Column_1299 Column_1300 Column_1301 Column_1302 Column_1303 Column_1304 Column_1305 Column_1306 Column_1307 Column_1308 Column_1309 Column_1310 Column_1311 Column_1312 Column_1313 Column_1314 Column_1315 Column_1316 Column_1317 Column_1318 Column_1319 Column_1320 Column_1321 Column_1322 Column_1323 Column_1324 Column_1325 Column_1326 Column_1327 Column_1328 Column_1329 Column_1330 Column_1331 Column_1332 Column_1333 Column_1334 Column_1335 Column_1336 Column_1337 Column_1338 Column_1339 Column_1340 Column_1341 Column_1342 Column_1343 Column_1344 Column_1345 Column_1346 Column_1347 Column_1348 Column_1349 Column_1350 Column_1351 Column_1352 Column_1353 Column_1354 Column_1355 Column_1356 Column_1357 Column_1358 Column_1359 Column_1360 Column_1361 Column_1362 Column_1363 Column_1364 Column_1365 Column_1366 Column_1367 Column_1368 Column_1369 Column_1370 Column_1371 Column_1372 Column_1373 Column_1374 Column_1375 Column_1376 Column_1377 Column_1378 Column_1379 Column_1380 Column_1381 Column_1382 Column_1383 Column_1384 Column_1385 Column_1386 Column_1387 Column_1388 Column_1389 Column_1390 Column_1391 Column_1392 Column_1393 Column_1394 Column_1395 Column_1396 Column_1397 Column_1398 Column_1399 Column_1400 Column_1401 Column_1402 Column_1403 Column_1404 Column_1405 Column_1406 Column_1407 Column_1408 Column_1409 Column_1410 Column_1411 Column_1412 Column_1413 Column_1414 Column_1415 Column_1416 Column_1417 Column_1418 Column_1419 Column_1420 Column_1421 Column_1422 Column_1423 Column_1424 Column_1425 Column_1426 Column_1427 Column_1428 Column_1429 Column_1430 Column_1431 Column_1432 Column_1433 Column_1434 Column_1435 Column_1436 Column_1437 Column_1438 Column_1439 Column_1440 Column_1441 Column_1442 Column_1443 Column_1444 Column_1445 Column_1446 Column_1447 Column_1448 Column_1449 Column_1450 Column_1451 Column_1452 Column_1453 Column_1454 Column_1455 Column_1456 Column_1457 Column_1458 Column_1459 Column_1460 Column_1461 Column_1462 Column_1463 Column_1464 Column_1465 Column_1466 Column_1467 Column_1468 Column_1469 Column_1470 Column_1471 Column_1472 Column_1473 Column_1474 Column_1475 Column_1476 Column_1477 Column_1478 Column_1479 Column_1480 Column_1481 Column_1482 Column_1483 Column_1484 Column_1485 Column_1486 Column_1487 Column_1488 Column_1489 Column_1490 Column_1491 Column_1492 Column_1493 Column_1494 Column_1495 Column_1496 Column_1497 Column_1498 Column_1499 Column_1500 Column_1501 Column_1502 Column_1503 Column_1504 Column_1505 Column_1506 Column_1507 Column_1508 Column_1509 Column_1510 Column_1511 Column_1512 Column_1513 Column_1514 Column_1515 Column_1516 Column_1517 Column_1518 Column_1519 Column_1520 Column_1521 Column_1522 Column_1523 Column_1524 Column_1525 Column_1526 Column_1527 Column_1528 Column_1529 Column_1530 Column_1531 Column_1532 Column_1533 Column_1534 Column_1535 Column_1536 Column_1537 Column_1538 Column_1539 Column_1540 Column_1541 Column_1542 Column_1543 Column_1544 Column_1545 Column_1546 Column_1547 Column_1548 Column_1549 Column_1550 Column_1551 Column_1552 Column_1553 Column_1554 Column_1555 Column_1556 Column_1557 Column_1558 Column_1559 Column_1560 Column_1561 Column_1562 Column_1563 Column_1564 Column_1565 Column_1566 Column_1567 Column_1568 Column_1569 Column_1570 Column_1571 Column_1572 Column_1573 Column_1574 Column_1575 Column_1576 Column_1577 Column_1578 Column_1579 Column_1580 Column_1581 Column_1582 Column_1583 Column_1584 Column_1585 Column_1586 Column_1587 Column_1588 Column_1589 Column_1590 Column_1591 Column_1592 Column_1593 Column_1594 Column_1595 Column_1596 Column_1597 Column_1598 Column_1599 Column_1600 Column_1601 Column_1602 Column_1603 Column_1604 Column_1605 Column_1606 Column_1607 Column_1608 Column_1609 Column_1610 Column_1611 Column_1612 Column_1613 Column_1614 Column_1615 Column_1616 Column_1617 Column_1618 Column_1619 Column_1620 Column_1621 Column_1622 Column_1623 Column_1624 Column_1625 Column_1626 Column_1627 Column_1628 Column_1629 Column_1630 Column_1631 Column_1632 Column_1633 Column_1634 Column_1635 Column_1636 Column_1637 Column_1638 Column_1639 Column_1640 Column_1641 Column_1642 Column_1643 Column_1644 Column_1645 Column_1646 Column_1647 Column_1648 Column_1649 Column_1650 Column_1651 Column_1652 Column_1653 Column_1654 Column_1655 Column_1656 Column_1657 Column_1658 Column_1659 Column_1660 Column_1661 Column_1662 Column_1663 Column_1664 Column_1665 Column_1666 Column_1667 Column_1668 Column_1669 Column_1670 Column_1671 Column_1672 Column_1673 Column_1674 Column_1675 Column_1676 Column_1677 Column_1678 Column_1679 Column_1680 Column_1681 Column_1682 Column_1683 Column_1684 Column_1685 Column_1686 Column_1687 Column_1688 Column_1689 Column_1690 Column_1691 Column_1692 Column_1693 Column_1694 Column_1695 Column_1696 Column_1697 Column_1698 Column_1699 Column_1700 Column_1701 Column_1702 Column_1703 Column_1704 Column_1705 Column_1706 Column_1707 Column_1708 Column_1709 Column_1710 Column_1711 Column_1712 Column_1713 Column_1714 Column_1715 Column_1716 Column_1717 Column_1718 Column_1719 Column_1720 Column_1721 Column_1722 Column_1723 Column_1724 Column_1725 Column_1726 Column_1727 Column_1728 Column_1729 Column_1730 Column_1731 Column_1732 Column_1733 Column_1734 Column_1735 Column_1736 Column_1737 Column_1738 Column_1739 Column_1740 Column_1741 Column_1742 Column_1743 Column_1744 Column_1745 Column_1746 Column_1747 Column_1748 Column_1749 Column_1750 Column_1751 Column_1752 Column_1753 Column_1754 Column_1755 Column_1756 Column_1757 Column_1758 Column_1759 Column_1760 Column_1761 Column_1762 Column_1763 Column_1764 Column_1765 Column_1766 Column_1767 Column_1768 Column_1769 Column_1770 Column_1771 Column_1772 Column_1773 Column_1774 Column_1775 Column_1776 Column_1777 Column_1778 Column_1779 Column_1780 Column_1781 Column_1782 Column_1783 Column_1784 Column_1785 Column_1786 Column_1787 Column_1788 Column_1789 Column_1790 Column_1791 Column_1792 Column_1793 Column_1794 Column_1795 Column_1796 Column_1797 Column_1798 Column_1799 Column_1800 Column_1801 Column_1802 Column_1803 Column_1804 Column_1805 Column_1806 Column_1807 Column_1808 Column_1809 Column_1810 Column_1811 Column_1812 Column_1813 Column_1814 Column_1815 Column_1816 Column_1817 Column_1818 Column_1819 Column_1820 Column_1821 Column_1822 Column_1823 Column_1824 Column_1825 Column_1826 Column_1827 Column_1828 Column_1829 Column_1830 Column_1831 Column_1832 Column_1833 Column_1834 Column_1835 Column_1836 Column_1837 Column_1838 Column_1839 Column_1840 Column_1841 Column_1842 Column_1843 Column_1844 Column_1845 Column_1846 Column_1847 Column_1848 Column_1849 Column_1850 Column_1851 Column_1852 Column_1853 Column_1854 Column_1855 Column_1856 Column_1857 Column_1858 Column_1859 Column_1860 Column_1861 Column_1862 Column_1863 Column_1864 Column_1865 Column_1866 Column_1867 Column_1868 Column_1869 Column_1870 Column_1871 Column_1872 Column_1873 Column_1874 Column_1875 Column_1876 Column_1877 Column_1878 Column_1879 Column_1880 Column_1881 Column_1882 Column_1883 Column_1884 Column_1885 Column_1886 Column_1887 Column_1888 Column_1889 Column_1890 Column_1891 Column_1892 Column_1893 Column_1894 Column_1895 Column_1896 Column_1897 Column_1898 Column_1899 Column_1900 Column_1901 Column_1902 Column_1903 Column_1904 Column_1905 Column_1906 Column_1907 Column_1908 Column_1909 Column_1910 Column_1911 Column_1912 Column_1913 Column_1914 Column_1915 Column_1916 Column_1917 Column_1918 Column_1919 Column_1920 Column_1921 Column_1922 Column_1923 Column_1924 Column_1925 Column_1926 Column_1927 Column_1928 Column_1929 Column_1930 Column_1931 Column_1932 Column_1933 Column_1934 Column_1935 Column_1936 Column_1937 Column_1938 Column_1939 Column_1940 Column_1941 Column_1942 Column_1943 Column_1944 Column_1945 Column_1946 Column_1947 Column_1948 Column_1949 Column_1950 Column_1951 Column_1952 Column_1953 Column_1954 Column_1955 Column_1956 Column_1957 Column_1958 Column_1959 Column_1960 Column_1961 Column_1962 Column_1963 Column_1964 Column_1965 Column_1966 Column_1967 Column_1968 Column_1969 Column_1970 Column_1971 Column_1972 Column_1973 Column_1974 Column_1975 Column_1976 Column_1977 Column_1978 Column_1979 Column_1980 Column_1981 Column_1982 Column_1983 Column_1984 Column_1985 Column_1986 Column_1987 Column_1988 Column_1989 Column_1990 Column_1991 Column_1992 Column_1993 Column_1994 Column_1995 Column_1996 Column_1997 Column_1998 Column_1999 Column_2000 Column_2001 Column_2002 Column_2003 Column_2004 Column_2005 Column_2006 Column_2007 Column_2008 Column_2009 Column_2010 Column_2011 Column_2012 Column_2013 Column_2014 Column_2015 Column_2016 Column_2017 Column_2018 Column_2019 Column_2020 Column_2021 Column_2022 Column_2023 Column_2024 Column_2025 Column_2026 Column_2027 Column_2028 Column_2029 Column_2030 Column_2031 Column_2032 Column_2033 Column_2034 Column_2035 Column_2036 Column_2037 Column_2038 Column_2039 Column_2040 Column_2041 Column_2042 Column_2043 Column_2044 Column_2045 Column_2046 Column_2047 Column_2048 Column_2049 Column_2050 Column_2051 Column_2052 Column_2053 Column_2054 Column_2055 Column_2056 Column_2057 Column_2058 Column_2059 Column_2060 Column_2061 Column_2062 Column_2063 Column_2064 Column_2065 Column_2066 Column_2067 Column_2068 Column_2069 Column_2070 Column_2071 Column_2072 Column_2073 Column_2074 Column_2075 Column_2076 Column_2077 Column_2078 Column_2079 Column_2080 Column_2081 Column_2082 Column_2083 Column_2084 Column_2085 Column_2086 Column_2087 Column_2088 Column_2089 Column_2090 Column_2091 Column_2092 Column_2093 Column_2094 Column_2095 Column_2096 Column_2097 Column_2098 Column_2099 Column_2100 Column_2101 Column_2102 Column_2103 Column_2104 Column_2105 Column_2106 Column_2107 Column_2108 Column_2109 Column_2110 Column_2111 Column_2112 Column_2113 Column_2114 Column_2115 Column_2116 Column_2117 Column_2118 Column_2119 Column_2120 Column_2121 Column_2122 Column_2123 Column_2124 Column_2125 Column_2126 Column_2127 Column_2128 Column_2129 Column_2130 Column_2131 Column_2132 Column_2133 Column_2134 Column_2135 Column_2136 Column_2137 Column_2138 Column_2139 Column_2140 Column_2141 Column_2142 Column_2143 Column_2144 Column_2145 Column_2146 Column_2147 Column_2148 Column_2149 Column_2150 Column_2151 Column_2152 Column_2153 Column_2154 Column_2155 Column_2156 Column_2157 Column_2158 Column_2159 Column_2160 Column_2161 Column_2162 Column_2163 Column_2164 Column_2165 Column_2166 Column_2167 Column_2168 Column_2169 Column_2170 Column_2171 Column_2172 Column_2173 Column_2174 Column_2175 Column_2176 Column_2177 Column_2178 Column_2179 Column_2180 Column_2181 Column_2182 Column_2183 Column_2184 Column_2185 Column_2186 Column_2187 Column_2188 Column_2189 Column_2190 Column_2191 Column_2192 Column_2193 Column_2194 Column_2195 Column_2196 Column_2197 Column_2198 Column_2199 Column_2200 Column_2201 Column_2202 Column_2203 Column_2204 Column_2205 Column_2206 Column_2207 Column_2208 Column_2209 Column_2210 Column_2211 Column_2212 Column_2213 Column_2214 Column_2215 Column_2216 Column_2217 Column_2218 Column_2219 Column_2220 Column_2221 Column_2222 Column_2223 Column_2224 Column_2225 Column_2226 Column_2227 Column_2228 Column_2229 Column_2230 Column_2231 Column_2232 Column_2233 Column_2234 Column_2235 Column_2236 Column_2237 Column_2238 Column_2239 Column_2240 Column_2241 Column_2242 Column_2243 Column_2244 Column_2245 Column_2246 Column_2247 Column_2248 Column_2249 Column_2250 Column_2251 Column_2252 Column_2253 Column_2254 Column_2255 Column_2256 Column_2257 Column_2258 Column_2259 Column_2260 Column_2261 Column_2262 Column_2263 Column_2264 Column_2265 Column_2266 Column_2267 Column_2268 Column_2269 Column_2270 Column_2271 Column_2272 Column_2273 Column_2274 Column_2275 Column_2276 Column_2277 Column_2278 Column_2279 Column_2280 Column_2281 Column_2282 Column_2283 Column_2284 Column_2285 Column_2286 Column_2287 Column_2288 Column_2289 Column_2290 Column_2291 Column_2292 Column_2293 Column_2294 Column_2295 Column_2296 Column_2297 Column_2298 Column_2299 Column_2300 Column_2301 Column_2302 Column_2303 Column_2304 Column_2305 Column_2306 Column_2307 Column_2308 Column_2309 Column_2310 Column_2311 Column_2312 Column_2313 Column_2314 Column_2315 Column_2316 Column_2317 Column_2318 Column_2319 Column_2320 Column_2321 Column_2322 Column_2323 Column_2324 Column_2325 Column_2326 Column_2327 Column_2328 Column_2329 Column_2330 Column_2331 Column_2332 Column_2333 Column_2334 Column_2335 Column_2336 Column_2337 Column_2338 Column_2339 Column_2340 Column_2341 Column_2342 Column_2343 Column_2344 Column_2345 Column_2346 Column_2347 Column_2348 Column_2349 Column_2350 Column_2351 Column_2352 Column_2353 Column_2354 Column_2355 Column_2356 Column_2357 Column_2358 Column_2359 Column_2360 Column_2361 Column_2362 Column_2363 Column_2364 Column_2365 Column_2366 Column_2367 Column_2368 Column_2369 Column_2370 Column_2371 Column_2372 Column_2373 Column_2374 Column_2375 Column_2376 Column_2377 Column_2378 Column_2379 Column_2380 Column_2381 Column_2382 Column_2383 Column_2384 Column_2385 Column_2386 Column_2387 Column_2388 Column_2389 Column_2390 Column_2391 Column_2392 Column_2393 Column_2394 Column_2395 Column_2396 Column_2397 Column_2398 Column_2399 Column_2400 Column_2401 Column_2402 Column_2403 Column_2404 Column_2405 Column_2406 Column_2407 Column_2408 Column_2409 Column_2410 Column_2411 Column_2412 Column_2413 Column_2414 Column_2415 Column_2416 Column_2417 Column_2418 Column_2419 Column_2420 Column_2421 Column_2422 Column_2423 Column_2424 Column_2425 Column_2426 Column_2427 Column_2428 Column_2429 Column_2430 Column_2431 Column_2432 Column_2433 Column_2434 Column_2435 Column_2436 Column_2437 Column_2438 Column_2439 Column_2440 Column_2441 Column_2442 Column_2443 Column_2444 Column_2445 Column_2446 Column_2447 Column_2448 Column_2449 Column_2450 Column_2451 Column_2452 Column_2453 Column_2454 Column_2455 Column_2456 Column_2457 Column_2458 Column_2459 Column_2460 Column_2461 Column_2462 Column_2463 Column_2464 Column_2465 Column_2466 Column_2467 Column_2468 Column_2469 Column_2470 Column_2471 Column_2472 Column_2473 Column_2474 Column_2475 Column_2476 Column_2477 Column_2478 Column_2479 Column_2480 Column_2481 Column_2482 Column_2483 Column_2484 Column_2485 Column_2486 Column_2487 Column_2488 Column_2489 Column_2490 Column_2491 Column_2492 Column_2493 Column_2494 Column_2495 Column_2496 Column_2497 Column_2498 Column_2499 Column_2500 Column_2501 Column_2502 Column_2503 Column_2504 Column_2505 Column_2506 Column_2507 Column_2508 Column_2509 Column_2510 Column_2511 Column_2512 Column_2513 Column_2514 Column_2515 Column_2516 Column_2517 Column_2518 Column_2519 Column_2520 Column_2521 Column_2522 Column_2523 Column_2524 Column_2525 Column_2526 Column_2527 Column_2528 Column_2529 Column_2530 Column_2531 Column_2532 Column_2533 Column_2534 Column_2535 Column_2536 Column_2537 Column_2538 Column_2539 Column_2540 Column_2541 Column_2542 Column_2543 Column_2544 Column_2545 Column_2546 Column_2547 Column_2548 Column_2549 Column_2550 Column_2551 Column_2552 Column_2553 Column_2554 Column_2555 Column_2556 Column_2557 Column_2558 Column_2559 Column_2560 Column_2561 Column_2562 Column_2563 Column_2564 Column_2565 Column_2566 Column_2567 Column_2568 Column_2569 Column_2570 Column_2571 Column_2572 Column_2573 Column_2574 Column_2575 Column_2576 Column_2577 Column_2578 Column_2579 Column_2580 Column_2581 Column_2582 Column_2583 Column_2584 Column_2585 Column_2586 Column_2587 Column_2588 Column_2589 Column_2590 Column_2591 Column_2592 Column_2593 Column_2594 Column_2595 Column_2596 Column_2597 Column_2598 Column_2599 Column_2600 Column_2601 Column_2602 Column_2603 Column_2604 Column_2605 Column_2606 Column_2607 Column_2608 Column_2609 Column_2610 Column_2611 Column_2612 Column_2613 Column_2614 Column_2615 Column_2616 Column_2617 Column_2618 Column_2619 Column_2620 Column_2621 Column_2622 Column_2623 Column_2624 Column_2625 Column_2626 Column_2627 Column_2628 Column_2629 Column_2630 Column_2631 Column_2632 Column_2633
feature_infos=[-1.7116888579904139:1.4362876950416494] [-1.6265535160470961:2.0037010990527424] [-2.4584478168810149:2.3483783288903628] [-2.2175649226508423:2.5429885001101424] [-1.1328015092534591:5.2817615645417293] [-0.75793928171821834:6.1756658043818549] [-1.8415086846595203:2.9896874518537402] [-1.3291331435326414:3.2482704564018503] [-1.3885432044108359:3.4106021050120408] [-1.3500287505433761:4.2460081431571846] [-1.3430731201544819:2.6153484743608062] [-0.99123003122770403:3.0812715248277671] [-1.5206202342935542:3.2439156230210617] [-1.8744728165887992:2.9784489030164774] [-1.8613821693181472:2.7456739802659711] [-1.5552472863152687:3.798367094566578] [-1.8208753269130065:2.2058727319312257] [-1.7652548634385952:3.4023323529283838] [-1.6675249617535828:2.761963242939677] [-1.5020724802832199:3.8301294444025662] [-2.0275789157294057:2.4535216813808929] [-1.480691419713992:5.145927385965801] [-1.4832682176090259:4.001056012551917] [-1.1435726362822318:3.8460890025018188] [-1.3798150184764226:3.3581496605836518] [-1.3982156343650216:6.1043268958504386] [-1.8770281146656587:2.2855952819734533] [-1.8504713363670042:2.4523277085890447] [-1.5550863907269261:2.7647164302993232] [-2.013833981517045:3.3907175233433047] [-1.5508413504924603:2.1103889041976922] [-1.3853789004879242:2.9719245103294503] [-1.8281976675165474:1.701909326389258] [-2.0556597280079969:3.0321183676057428] [-2.385068761594356:2.6277059444912974] [-1.8627382005443813:3.3507946157942863] [-1.6843924504440801:2.7587457956726693] [-1.4212722359446539:2.7242190889246038] [-1.338912354935218:2.653967364716741] [-1.3670388450247204:2.4077528713987633] [-2.7223597049824662:2.6155729455072496] [-1.511405176468535:3.4463446754883846] [-1.8963060037615618:2.8714620570773453] [-1.1963388798135908:4.2802084281236601] [-1.7149725377973213:2.6905712408987146] [-2.1098383298277334:2.5796095493490196] [-1.8772117692006043:3.1816403595674041] [-1.4463882102091252:3.7631204273635128] [-1.7687855306707203:2.1738583614340388] [-1.7393042484441203:3.8686674781256305] [-2.0826802448947772:3.3002309925747881] [-2.1302572996768339:2.1814427178914397] [-1.7360615305474414:1.9230934556309545] [-1.5265775153509515:2.720785385392162] [-2.4854695034188943:3.0219225173184605] [-2.0457575985870964:3.7497187495231241] [-1.0839821511903407:4.4886742115106975] [-1.0772778927321072:2.7393115529065808] [-1.4890965404283649:3.1138084624251796] [-1.4613925766845874:3.2613589847883828] [-1.9398339224371262:2.3736965553480189] [-1.7799978380780161:3.3251056904476268] [-2.1592918065873965:2.3133749543674451] [-2.5246534879201303:3.246393369697552] [-2.277790988759397:2.5462910541280608] [-2.096021515773939:3.2106633957592083] [-1.4776048745064894:2.8463930433089404] [-1.8044293484999658:2.8254772744210466] [-1.3563556126587162:3.1053588899234663] [-1.2150708279090505:3.6758383478328045] [-1.773388554279782:3.6468838024908723] [-1.7652148523997435:2.6990976449761939] [-1.7146013463441676:3.9176653356000566] [-1.7762908521617409:4.4849589581465228] [-1.76120196567466:1.7524735454073024] [-1.3369311142322631:2.8028281155238073] [-1.467751846748212:4.5860559140807631] [-1.215487972501724:4.5776930522197645] [-2.2424606873357913:2.7270535767500887] [-0.9748765600167717:5.5416416118877834] [-2.0343553146241917:2.417123646228609] [-1.9651745646003724:2.1246769891343908] [-1.6229013942759729:3.9645202707098832] [-1.184416870382863:3.7769115948018648] [-2.0737210114560236:2.6919662346837527] [-1.7287668088930275:3.5844869956045762] [-1.4434479814631509:2.7282568727633927] [-1.4228396454557783:3.2442059053860195] [-2.214302545250932:2.9510477840820348] [-1.0969895454521215:4.3806789436445026] [-2.0668539996869635:3.4840849796685562] [-1.0045764889303173:4.972818995782843] [-1.4208500554839674:2.8876197749316308] [-1.1187102605663384:3.2798674368702283] [-1.4955283571022737:4.0771003701516983] [-1.4744901138417623:3.3535832225928743] [-2.3583730799156668:3.9818060904332788] [-1.6686730352464845:4.3648521224082879] [-1.8679813410156707:3.6407706699691853] [-0.91695454393788767:6.830309372960488] [-2.036511735120206:3.1546232265656973] [-1.0524690224831184:3.7788304036246063] [-1.5123934585193339:3.0168043939675377] [-1.4971295349491187:3.6539584254387623] [-1.2670152981125977:5.528918704502952] [-1.055802304887568:6.1381780632463618] [-2.1253406004222506:2.6837901115873777] [-1.8772382566863468:4.133073002489831] [-1.9842963761064925:3.3008874869873122] [-1.1696501617421224:3.5290355499299633] [-1.0754480046321355:2.8069024189714957] [-1.2414664667252189:4.0600419383510689] [-2.3759587662178778:1.9244337765547495] [-2.3176251583654062:2.9636738412460675] [-1.4215031491877337:3.9065962662321403] [-1.3210839363763751:3.8144208283411354] [-1.4491880799214996:2.4773615346130327] [-1.4830514880375965:3.0195805293125386] [-2.6947987649543261:3.1344654541515395] [-2.1335546794705063:3.1287961965368214] [-2.7892383520724691:2.6413845903915227] [-2.74754094098083:2.051498389331003] [-1.9567309690607793:3.7029877725192577] [-1.4148331876848477:3.467817769833569] [-1.8778203667982245:1.7189721879972768] [-1.9932083371074456:2.8681180938713915] [-1.8716796937317537:2.3113110366615812] [-1.7023508993229586:3.4759797537073123] [-1.5179378896884537:3.9974524284573909] [-1.272300740572512:3.504168995485184] [-1.7002203270655758:2.0671623924500153] [-1.872861155038938:3.1887930735973633] [-2.3800100841383864:2.4233576815094415] [-1.9440065376025639:3.7768531476012561] [-1.2940205852690105:2.5309062639586402] [-1.4355986494075534:2.6724770814550154] [-1.7594213098191986:1.5993700381514679] [-1.4957462733141258:2.7481760031359501] [-1.1212720932808422:2.144610545021588] [-1.9320594607080839:3.6531684197590732] [-1.7217065067353712:1.8622517817093807] [-1.80523114239616:4.9236178596406504] [-2.6107311987644892:2.4887537182985007] [-2.1958670967014102:2.7087776415985867] [-1.9178051646010434:2.6978958346596289] [-2.2879805765299372:3.1005945003669271] [-2.3139464425229792:2.6020799860436923] [-1.691562488066221:4.2277257790002691] [-3.1103863187356104:2.8160286981204687] [-1.8491158081995562:2.9126571841460263] [-1.1795979708477866:3.1208116250797193] [-1.3968170056028579:3.4519979778875522] [-1.2336683790993057:2.8829809850794574] [-1.6237238633273534:4.3913434131832503] [-1.6614345435071438:4.9132306305522535] [-0.83738642397899798:5.2501575818677795] [-1.267458133094344:3.5708288382606019] [-1.2077728232998037:4.1008585391674401] [-2.2427643342757371:2.6821033838501331] [-1.577419840508723:3.4373151485077158] [-1.9585191363431584:2.2632298956020493] [-2.2154361851737576:2.7551415615017856] [-1.3839469699986211:4.6809233043110092] [-1.0057735836649713:5.8692382029366499] [-1.8914540365412191:4.2939260182674897] [-0.9598866187307904:5.516253474156378] [-1.8682545722235611:2.4191807796216964] [-1.7631034712039173:3.1499655291886657] [-1.6477999481833228:3.0123013703512775] [-1.5573370256029484:3.553490261684102] [-1.7271654388307023:2.211051937061451] [-1.2822136062803129:3.9729553375805025] [-2.3208030186953459:4.055089377037894] [-0.92136932930213256:6.3968146536799839] [-1.6042591313884904:2.7386606933819575] [-1.5587599831145769:2.6061035733411013] [-1.7390104904690964:3.0270416764159389] [-2.006387202038566:2.8516985357352342] [-2.1528350954836095:2.8477731435961835] [-1.508799463350696:3.5823022079934601] [-1.7944161719421026:3.480337779478166] [-1.4557078013445561:5.0300922643062584] [-1.2879624522040383:2.7367634499925111] [-1.1648301658357383:3.1112591159994083] [-1.7693702285518067:3.4639724725911365] [-1.7600166267646968:3.1807620990452024] [-1.7551822963875303:4.8662436203895956] [-1.6361100217731217:3.0207361371978045] [-1.5168652835815013:2.2288412638922126] [-1.380385913719993:3.2369825860759027] [-1.7562366648560512:3.0178088954787361] [-1.3849675360295997:4.4550475516973513] [-1.3817182820323348:4.1873562149455736] [-1.2380366188518896:4.815169684133954] [-3.4662262000402446:2.5329873704531813] [-1.6167466927215235:2.4613242941348457] [-1.7963911476562597:3.0176153464821072] [-1.3246602672698364:3.7833919782816952] [-1.4713797047319466:2.8683021148085799] [-1.4861572552679232:3.3372808504397526] [-1.4235558582750429:3.3709777656553457] [-1.2135329694702544:3.3778253187623561] [-1.4857175937991596:2.9946238293322041] [-1.209115120195315:3.0497485559663922] [-2.0133520918459706:2.8380755804561399] [-1.5652173028758209:5.7279784868089729] [-2.1845027553720939:2.2411381210609629] [-1.7795825552021138:3.2167640731746019] [-1.4137341053667338:3.217065501229937] [-1.417528446183929:3.7768464947161164] [-1.5350163452836401:2.9188063320159667] [-1.2604634317379577:5.0704526523094016] [-1.628941152930734:1.5505024022465155] [-1.8452791315091499:2.0912985598235423] [-1.710601103312769:2.7704450170049024] [-1.5684570693155777:3.2126318738086543] [-1.7291822483218513:1.8386218085602681] [-1.4646338388586431:2.9795868577979041] [-1.8074747360210399:2.6194949048412308] [-2.0743543851180788:2.1756880909864247] [-1.5853280840702013:2.8993614419253642] [-1.5330208491862316:4.8285428765539642] [-1.603361133127077:2.5090369788582549] [-1.4982792663843101:2.3959286875509234] [-1.4724036850005784:2.4732348158528112] [-1.618570303908051:2.3753458350364944] [-1.0333463578479507:3.3357285311328488] [-0.82634062639710837:3.2719365993109069] [-1.660829113901491:3.3332330227465534] [-1.2562543610358314:3.413759552587444] [-1.9696312171613559:3.4867661714824001] [-1.4617299051363131:3.6120917157937562] [-2.3519205849198328:3.0340943756473036] [-1.6094684240563748:3.2880177901089689] [-1.4201366715789974:3.5241604012869536] [-1.1623744721666951:5.4274010800651915] [-2.0087343080211433:2.7638592632473067] [-2.2741631245081977:3.0335350464953827] [-1.4390750748226715:4.5765510222654706] [-1.122536669755168:4.4152194721913691] [-1.6585561217328466:3.044452207196275] [-1.7068524506389784:5.2665385232555888] [-2.4858838333625446:3.250440846403492] [-1.7602784716270332:3.4566914292742226] [-1.2122828115500481:3.7910690893380856] [-0.84484902453639643:3.7681454415507165] [-1.5376574225391619:2.3358723838490967] [-1.3544932000130867:2.3785202052562093] [-2.0703895424314669:1.8871532910021251] [-2.2851767011568693:3.2383828933885517] [-1.4522165164465397:2.2688485454523168] [-1.4075882037455458:3.2138563565455396] [-1.5428667364679098:2.432585758078865] [-1.2820088166078951:3.5750192915898897] [-1.8264786825401178:3.1864653816491586] [-2.0937625619317726:3.7754683961745088] [-1.7861026455157101:6.6639765323570046] [-1.418233913406356:7.2939669232586262] [-2.0452178423127432:4.8451063274581667] [-1.0135453710868323:4.4089240160658267] [-1.6919792701455147:3.250915644955152] [-0.98455797910713749:3.475242232789082] [-1.6907617863866582:2.8439163515923216] [-1.5993027578506152:3.3030859906599956] [-1.990042908760334:3.2565543089860087] [-1.664950303488401:3.7970361150952421] [-2.4974481648031248:3.0988532893980678] [-1.8478631553803258:3.5726192886935157] [-2.4479085080281648:3.9473868273172368] [-0.89071034526561477:4.7206441687294944] [-1.8462447992341406:3.0565047422562706] [-1.8072235348882995:2.9951326543171621] [-1.5119922050674701:2.903200561562949] [-1.3226983211688952:2.9771890521628328] [-1.4966347341411477:1.9886555938529935] [-1.3650641179524545:2.8400038774651732] [-2.8279438034902475:2.1187333317840689] [-1.6989793126302792:3.0449306258872375] [-1.5984641067205232:2.7387137098840708] [-1.9585983527432755:2.6990875554474982] [-2.0605617592195977:2.6742558511598045] [-1.6936071593079438:2.5663288892385814] [-1.4731512844922889:3.9868202301013094] [-0.99435792836905346:4.7917648235890935] [-1.8045140955529659:2.6845495215012551] [-1.7962795551048034:3.3766425235037394] [-1.5490446891254437:2.5452893934042709] [-1.5515363029648119:3.6257437721555252] [-1.6830206398600047:2.7684924041183936] [-1.4864202874611854:3.3530640921069539] [-1.9524866291874117:3.5855627419041345] [-1.4656755897697067:3.4235872880524361] [-1.2616514411979804:1.9944702224869559] [-1.6868362254940308:3.008111798655801] [-1.7542995503630836:3.4164901212272669] [-1.3708711694942244:4.5828897870158203] [-2.0318212099625135:5.3340280013722277] [-1.0581619022348288:5.8666040372540751] [-1.6542943778267929:2.5485005929982076] [-1.4051821071069581:3.0374326908095739] [-1.6178602750932343:1.8399454856516115] [-1.4721155627050502:2.2623203758151651] [-1.7949539564080539:2.3836145091813585] [-1.8531821033764646:2.9897005166604447] [-1.1251024964357514:2.7668992565708392] [-1.642827588177147:3.4674673419881237] [-1.1327338337321797:2.5588880641406107] [-1.2247996426609851:3.1822217133159199] [-1.1314820242354198:2.5434750170133218] [-1.5428636608506678:3.1210025273509512] [-1.8373533961276671:3.4738901049942572] [-1.4686558803713936:3.7909031528715316] [-1.7932931480094088:1.650128398517799] [-1.4148403834216083:4.5118681581799294] [-1.4553690486044204:2.2689350131246528] [-1.4236231325559816:3.0051328883911914] [-2.0942853374081585:2.907106696473547] [-2.0567564193595942:4.4664184427319249] [-1.7582493669546537:2.6490164971793115] [-1.6481200281689445:2.7116033857792772] [-1.3094205882542123:2.7842785424997056] [-1.2347776335388791:4.0025573703331085] [-1.6377749258833632:2.2834893230893134] [-1.5370478068231475:2.3802477197643914] [-3.1682909638162942:5.0033207895576473] [-1.0848165357632487:3.5610290929357191] [-1.8384537704126904:3.1924212321893006] [-1.0444851541039244:4.7890594507098445] [-1.6678339153143364:2.052335455592833] [-1.5002305496286641:2.7276654498832067] [-2.0007192525842257:2.0874185471567825] [-1.4805109039228899:2.8082495159252234] [-1.7554682737118639:4.6380824679883137] [-1.0263546593211825:5.8451013180758276] [-1.0175647477004297:2.5300586589826808] [-1.0455814385562281:2.6761360190184216] [-1.5175356063838552:3.2908728002452778] [-1.2821201534352531:4.3065542494103513] [-2.0797895268160125:2.5358227894805219] [-1.3522510215891188:3.8007407520732275] [-1.6847053921399966:2.6743117835219734] [-1.2805871126994322:3.1363189526433115] [-1.4074954726899771:4.101892598739477] [-1.7155415858097343:3.7239744453918466] [-2.2152443864096263:2.7734218428857513] [-1.7453908922904764:2.4927766422396864] [-1.5896064898915672:1.9800231543265292] [-1.424141737625382:3.6237697362970671] [-1.8478017367023345:3.3304982436485431] [-1.5292477654626115:3.2796912648639971] [-1.6343699259391324:2.5447304705170062] [-1.3796658070435952:3.1504079639556868] [-1.8398204254618209:1.661626530620862] [-1.9324475941802961:2.2945275161178689] [-1.4041653299174202:3.3212801612601299] [-0.98823860271171204:3.5622842702627535] [-2.159401782471098:2.7635049321586203] [-2.4472619300011331:3.4184445857165224] [-1.4687874834246544:2.4853601822144062] [-1.4836954530848807:2.792387910138912] [-1.553008595430057:1.8411912001410644] [-1.35489790663745:3.3535547427240817] [-1.7585773415217982:2.3658692986768712] [-1.2921825078228937:2.7925957150607608] [-1.5135165790617406:3.0206100847631294] [-1.2517313436373219:3.1466888989690691] [-1.8465537770382445:3.00439334931656] [-1.1431058673612164:3.2311939570601558] [-1.7217371951931491:2.6636597747256499] [-1.3632724467544779:2.9555153251868953] [-2.0388721747854155:3.3715101875021083] [-1.9912922743277151:2.294465544622136] [-1.4052056734899956:2.3339206554836256] [-1.0428529232390351:3.8211660596109036] [-2.119683740968032:3.9992502583657639] [-1.3935045150508385:4.2136970297135825] [-1.3035024541258093:3.4457357746685862] [-1.1873093051192078:3.4079779672512602] [-1.8121405050565631:1.3904695909094311] [-1.5360084581240654:3.8524748302255412] [-2.6454635894472869:2.6094576781515184] [-2.3220776158176943:2.3963261131573259] [-1.8436091135469657:3.456641653837413] [-1.9140518288542914:3.4964448515257791] [-1.5855062980480992:3.0447775387032179] [-1.6097669532006715:3.9647958345969183] [-1.8689660052197306:2.6759350671782141] [-1.3931971436194304:3.7909512826748224] [-1.7651458940729565:2.460166720222392] [-1.8670039454696021:2.3462175181227027] [-1.6121875066696596:2.9498393271619729] [-1.8265093998467905:3.181344574632067] [-2.0036523340766146:5.1582105255639314] [-0.73795452333537803:6.5607306763603113] [-1.7854248429827622:4.3083303861212494] [-1.2889231914543455:3.699963733367972] [-1.9485663453258388:3.5688500433508472] [-1.7860699984512625:3.6666956115333353] [-2.1706663435807045:2.4063406734735175] [-1.5812381989119608:2.8667778902499004] [-2.1235926955971225:2.0773615680335245] [-1.8013188563552378:3.7390575604881255] [-1.7204096345116691:3.4524228634756371] [-1.5310575063371579:3.6026358208382541] [-1.9867131723726115:3.7149626748830613] [-1.5742162688525174:3.6110156763848189] [-1.9144426430183434:2.1819742080323237] [-1.3579722817506961:2.8275848720793237] [-1.5929975588134948:2.6503192956750041] [-1.2093677582756943:2.7072016893163111] [-1.6181694978594432:2.712480695781962] [-1.3633837649733527:3.2630736853272788] [-1.7998315565343639:1.5237345554470241] [-2.0112581914628671:2.3379197105180838] [-1.7845356537040384:2.63020706169908] [-2.2055146921208264:3.2217183128480964] [-1.6145121766227402:3.9387657327816368] [-1.5254795652736959:3.3891490871708778] [-1.8256399485137733:1.4102040650027052] [-1.9511241076003514:2.6134413927045879] [-1.4990499110806859:3.8307741653488034] [-1.4429092227565059:3.61604710878736] [-1.7274029080816715:2.4254412720916578] [-0.9464958092845307:4.8925084879214298] [-1.6710374225938889:3.1074448925137563] [-1.3073845450986223:3.8554641767088422] [-1.6558070199498833:3.865802271146082] [-1.0536348479403337:3.1543679219415734] [-1.7409417155373155:3.0468235963953769] [-1.4717744166353555:4.4820715604094046] [-1.2522438053800775:3.9874251873694133] [-1.1687071925339878:3.7441577293207762] [-1.1965296926412314:2.7404354037937715] [-1.0482658922144508:2.5624261503627341] [-2.0837784144541347:2.4820242700242146] [-1.7527729996744579:3.7446955954274279] [-1.7250862309566768:4.7029407772962006] [-1.3894831594139674:5.2072755709883509] [-1.3312105858724055:2.7859776188855521] [-1.3537436938733924:2.7887811597698926] [-1.9140222380986598:2.5373182589319088] [-2.1693040877025838:2.6055748738880977] [-1.3647153786180832:4.1098627185581798] [-1.2735660646407319:4.1545363585313755] [-1.6216139659852302:4.4488646300406423] [-1.5261744266538764:3.7133535924236267] [-2.1061542720913797:3.4773583359824527] [-1.2921924922087749:5.383661389963712] [-1.4385193550605349:2.4961299679567341] [-1.1989979326694182:3.8101347909563321] [-1.6876971873674966:3.3508096371848848] [-1.1923941612555964:5.6291383076047063] [-1.5817172353930784:3.8061957443733232] [-1.0629572328920718:4.4284794021688949] [-1.1831526528977168:3.6554688124540826] [-0.9611462950411328:3.8831594720175842] [-1.7211539261738245:2.3506510056003029] [-1.7558989746516471:2.8084583861459138] [-1.5219874112582639:2.1464518909392738] [-1.4614479470987052:2.7574471984975348] [-1.5250577519846216:3.0399825241146234] [-1.2880207496750309:2.9094849764132671] [-2.1964918555509323:2.5357521056582408] [-1.8191119365461845:2.379699963731257] [-1.8827153599294932:2.7155283711752549] [-1.2066920298912385:3.8077591127227164] [-1.2969532963289696:3.9986824276066035] [-1.2920712881067473:3.5654571585754855] [-1.71655049741176:3.4988779961385901] [-1.3322989709064561:3.431782269550395] [-1.6749396959320135:2.9968576386028505] [-1.5918258793230757:4.3053467323890873] [-2.0050505639492786:3.4958651183979348] [-1.6693164661389253:3.1295885196193698] [-1.5622518714664462:2.1162772874854019] [-1.5321762452480556:2.8599421042137756] [-0.99403861583906805:2.7965375861409894] [-1.3006040660267122:3.2013925186053753] [-1.9304434213483677:2.9841278704646004] [-1.4950356218655472:4.0982102467259534] [-1.5933805090669331:2.4156249568972741] [-1.1132562900516332:2.9013129391366634] [-2.2404535338857832:2.3828289264948062] [-1.8939569505565452:2.551767689563615] [-2.2454397156575712:3.0326730285715668] [-1.7359668691933239:3.0493411654967768] [-1.4685381992362083:2.4090847162582807] [-1.4343370843366918:3.0247875518705323] [-2.0949307445512555:2.6051151504431505] [-1.5181449315548765:4.4341030116454441] [-2.3840483699995647:2.3086084573267431] [-2.0008850818738653:2.749187433358784] [-1.9158762934037648:5.0645246584308463] [-1.2892689596832156:5.3666988297510141] [-1.553402610705052:4.090481069959611] [-1.1047779799652717:4.2103571920174847] [-1.6285543167819023:4.0142694620308648] [-1.1901367968322605:3.7456513447553177] [-1.3908018398510655:3.6983253107172946] [-1.3897353375876023:3.418934207782288] [-1.4939755792450191:2.1299261174290036] [-1.3929667266542876:2.6699373358005798] [-1.9569128382225733:1.2576371085893612] [-1.6202986123347216:3.1571984842556478] [-1.7416550803928132:2.5991019671517095] [-1.6036827217327301:2.9848034370951186] [-1.6139262481684715:3.7971485130792364] [-1.2612220542641417:5.8563499463570716] [-2.1851340861544006:2.9519306603040323] [-1.7143630968492216:4.2659053033349217] [-2.0843228781935257:2.417992213285685] [-1.2652156977170483:4.5431566271398687] [-1.4654228997693686:5.7780389661027405] [-0.97008982318529768:4.7302815780228489] [-1.2102676104346555:3.2365293163150772] [-1.0779806803224217:3.9951124001483889] [-2.2955991518234757:2.0714140169207602] [-1.4332827997782043:3.8181504300123179] [-2.32515514103779:1.9529439450710617] [-1.9194043455829608:2.9781173128359062] [-2.3550767524307741:2.7364329078174054] [-1.2960964673870319:2.9768275412191856] [-1.6077395847516278:2.4923446536942033] [-1.337131594164207:2.7253247104154821] [-1.693411182495776:3.2245362103367561] [-1.653830078452462:3.0778598385155864] [-2.2819355109279718:2.1323762042997334] [-1.8242724398570724:2.3763537747492975] [-1.9044744808928868:4.7972175650151172] [-1.1480225439306009:8.6382572555510162] [-2.2824016820776873:2.2279346380243843] [-1.5272338471008498:3.396595086875621] [-1.8926022445803692:3.6678118515481595] [-1.4615090306940666:3.8603076879273712] [-1.9067060022242579:1.9107118304151998] [-1.1720932223875911:3.7341014238782466] [-2.2850904834518113:2.5786770648108597] [-2.2002300942438495:2.9984395116886713] [-1.3169039240988605:2.5117135189893842] [-1.5325774397266385:3.0973451123307201] [-1.5872556063605565:3.9079814050775932] [-1.3140939620734491:4.9546875485435811] [-1.6517389246341818:2.9038696120527678] [-1.5419796479044812:2.5257218235990533] [-1.3668318009355296:2.6303954675929146] [-1.4357802354429099:2.6057019492308848] [-2.445506912776287:2.7435789194263847] [-1.7529942585365128:2.7536212575770205] [-1.7548735009447392:2.6569027827810427] [-1.3530976370675649:4.0880981567486812] [-1.5430615834225683:1.6837718754332851] [-1.4625271704326503:2.577010229102402] [-2.2752363549721095:2.9932150960530453] [-1.909908886328656:4.9464710772619052] [-2.2691473189604294:3.1488787237633287] [-1.2508086101533193:4.5262040622541706] [-1.8824188822173116:3.934299428658464] [-1.5022732156611389:4.7004433079704802] [-1.7360408200068436:2.2166797420965634] [-1.8382262670984264:2.3898982276920218] [-2.2688249473558959:3.1698276593925105] [-1.2535156351862322:3.9690464397750826] [-2.0448308092172791:2.6241136975335406] [-1.3336997949314009:3.3567356356308364] [-1.252191831428255:4.9528248101424541] [-1.5111993876722056:3.8376886482194714] [-1.4428533134681025:4.9611355816182519] [-1.1073861733790509:4.1878560010036088] [-1.5746107244524252:2.3924955435849435] [-2.0255631278038284:3.757309607715233] [-1.4681724569777825:3.7640785049016694] [-1.1071592650220787:4.5258504324115352] [-1.521970759681109:3.0235101833225508] [-1.5551953726751182:4.2794862034340859] [-1.5655156765236393:4.4078255596664793] [-1.0792369439091556:4.0061304062310965] [-1.721816964450509:2.5461564812686976] [-1.4196779859229425:3.5100550794982519] [-2.0289763074990415:2.4222099551734853] [-1.8133182924810307:2.5753960779159737] [-1.7545885353764168:3.1513666527333126] [-1.3322784684236535:3.0254295554872317] [-1.883367373886411:2.1633213338290496] [-1.997168708477127:2.6636315520696372] [-0.85368000028664981:2.8014549379174087] [-1.486692416331165:2.7603323059788742] [-1.408721879899383:2.6051689136475802] [-1.6724258577822975:2.5054337633930106] [-1.1551724501118821:3.6015737537743537] [-1.0610534808402785:4.0357900238414199] [-2.0482962213814906:2.8982354919798001] [-1.3373980091507112:3.3351034698503215] [-1.9233320307791379:3.9700062024160117] [-1.1119061804990149:4.2750157461568765] [-2.0217406721033013:3.0677208537102536] [-1.758437616503421:3.8941355813618648] [-0.95609146697329517:2.6577534928200617] [-1.3633737164713839:3.3445447715082151] [-1.7024795425999872:3.6839435243261622] [-1.2679408738164006:3.9227523186841675] [-1.6072341060501363:3.9071959889548569] [-1.4835091762603101:3.9551388988090781] [-1.7116902797903617:2.8923465591527977] [-1.4502794949769779:3.6169379023569332] [-1.8121567394047615:1.6365362964378061] [-2.5345698113532187:2.9909630970219911] [-2.3915313859823968:3.2602151733389388] [-1.5823694121196872:4.7859844694409537] [-1.8069093900983955:3.0735529480300583] [-2.013118053327501:2.7859574264869993] [-1.4413064400397555:3.1431694171347053] [-1.279374552362843:3.0783895728008193] [-1.4038112326655683:2.6651733144456204] [-1.3662328201033571:3.2267519061707923] [-1.7176751898600557:3.8252664164030117] [-1.3766226648837134:5.1306724857305062] [-1.4821749304276763:2.5973397820283712] [-1.2385686635434943:2.9465803478098351] [-1.5973049808752762:4.8183172497890441] [-1.3909462272952804:3.3368517161760542] [-1.4152461252914508:2.3707100111114157] [-1.2272296334550934:3.6810946502636077] [-1.5183644591568397:2.4986674184684379] [-1.5045417083582784:3.6216436777127896] [-1.7250305839255979:4.0086307276603073] [-1.0166032211986316:4.2128830323098709] [-1.4994092002618429:2.5318667459952917] [-1.3171214855501097:2.7615039396446441] [-1.5672450102682431:3.7120015013188596] [-1.3907249252430889:3.8780079762656445] [-1.8101399939407381:2.8046823543793491] [-2.0066586807338544:3.824127232696966] [-2.1674139679244724:3.8758304177677076] [-1.9205680461785419:3.5607539733936018] [-2.3111653803023606:5.0607949282271774] [-0.97009259842477558:6.7936881724978537] [-2.5233010630848871:3.3365183647664676] [-1.2841648063527997:4.5549868950370662] [-1.701130459924318:3.4606549284040424] [-1.3768892974610401:3.4765786017077605] [-1.5430099189961863:3.0411894430474091] [-1.2543542902318632:3.9136176406433356] [-0.93100625445733087:3.3188722406031479] [-0.93062609103505656:3.6216195018043846] [-2.2025735733865348:1.7028293270794583] [-1.3137559258414251:4.214761220452961] [-1.6016308090735791:8.1795006257288936] [-1.2803334841481382:4.955837616192686] [-2.3272337712922417:3.2597449668880381] [-2.1259552861161857:2.8904504355511995] [-2.0034131159768314:2.723370498586569] [-1.0646045481757642:5.146375858986457] [-1.7891683333221051:2.6115826475437789] [-1.40073216395489:3.5236208398720468] [-1.001907318802479:5.264318090737663] [-0.85648965439333069:5.8602275390805838] [-1.4911269526741993:2.8694987650271768] [-1.3956792446399136:3.2211748374933573] [-1.3531193375321686:1.7707942579069749] [-1.5446793512876991:3.2139507634223268] [-1.4421358776693716:5.1280651967838216] [-1.5864398547465348:3.0593602305232781] [-1.7488445357970686:2.908724259109833] [-1.0126182862364816:4.0232243563330465] [-1.7557889519788017:2.164231878218319] [-1.6555988988457255:2.3691868853308451] [-1.9239252340629618:2.6311579354905956] [-1.603399849486727:2.9529522219001705] [-2.5151048262826801:3.3436869091686354] [-1.5636033331490728:3.0258993866977764] [-1.827231823616098:2.9959984015384618] [-1.3866485023402526:5.4339018600104891] [-1.9916141027024983:1.9669819227073635] [-1.832184064900076:3.9521605842360548] [-1.9561728447961864:2.5230479983906373] [-1.432965482594508:3.4109505378872584] [-1.4466021598497152:2.2561690229462719] [-1.4434717870745704:3.3466543324525735] [-1.3892599389828284:2.6959698709896505] [-1.2278441169450454:3.5937167846613094] [-1.7463609371930713:5.5913983256562636] [-0.89369126403437438:5.1179477706555296] [-1.2858449356139217:4.0805850187569845] [-1.2153419196369524:3.3302818629533957] [-1.7144590902833423:2.5104483444383066] [-1.1346412649939157:3.6067410053863127] [-1.4654004725411025:2.689896421571873] [-1.3367005243058536:2.7961782758746665] [-1.8394650833147823:3.9552568892227931] [-1.7268609264403505:4.3711724040783242] [-3.1701371251081905:3.0872470293259884] [-2.3260221834072294:3.827592181694305] [-1.5411682967957634:3.6549396257486073] [-1.4454036196096107:3.8816574437454383] [-1.0892706324640387:3.7379868332611812] [-0.95115665431720031:3.7494176737891629] [-2.0526149132867197:4.76998646715262] [-1.1936922293742676:5.0007964641768066] [-2.5009406183901675:3.2510740597911556] [-1.6530898970285854:3.1313567140845007] [-2.4690026892878989:2.4174031175322335] [-2.3600233827016535:2.1616129767038235] [-1.8121105495088272:3.7489676157075054] [-1.8090116947771229:4.2009592872244559] [-1.6003968654990213:2.4136312250903056] [-1.2324908340219383:3.3606187029951151] [-1.5122444367502434:2.0696920835835217] [-1.3322047635124814:2.3525016760271171] [-2.2273381132932943:3.0406976158606169] [-1.4824553680891843:2.8885819055440076] [-1.8170613722389088:3.8850691680095157] [-1.2898496766613525:4.5364207408985058] [-2.3959457991632864:4.164448346967891] [-1.2705233962736548:4.1068202048126974] [-1.3311833052659146:3.7187139581885202] [-1.4388189923859322:3.0139939338846258] [-2.3039366210354424:3.3741579919978184] [-1.5084702180543297:3.4749012185149577] [-1.3252721708414643:4.3414386094290149] [-1.3625233518703936:3.5786658212247504] [-1.5865677062339287:1.7607613314017525] [-1.6006256460462496:2.6206546919142477] [-1.849430685987496:2.7379497565801598] [-1.4869174756138492:2.8391380601886156] [-1.8048406667938262:2.6186482102808561] [-1.2471223008311261:4.5210400402353139] [-1.6393026526268619:1.6374882530809396] [-1.6268411722963112:2.7698806854607225] [-1.4648700339744063:3.2480607058271365] [-1.3858587806945852:2.6434629567986652] [-2.2995819333882839:2.7070805977095596] [-2.0160115427871066:2.5886874903080339] [-1.7750453633400163:2.7904597574923922] [-1.9843332595079737:4.4817356069972289] [-1.6442106256175937:2.6571159329469265] [-1.6914454706182154:3.2468820070776228] [-1.5588281422818362:3.0763338568361576] [-1.6663226366507427:2.983375437955758] [-1.9007585292127793:2.8272242369260407] [-1.9760078163079948:3.701593164949406] [-2.4542778876156333:3.2204891105743516] [-2.608640823112411:2.9569952863643363] [-2.1707240439783653:3.5083949827636438] [-1.737143631925919:3.4869687338680349] [-1.5207306676655472:1.8578095780259545] [-1.6376246055412411:3.228090136613174] [-1.8834424125312712:3.4971933501891335] [-1.1085333289437582:6.0969574575934118] [-1.9837520081728626:2.8186057862850413] [-1.7279536381595391:2.6945588821224202] [-1.7044210643786657:1.9497966387346131] [-1.9651430420508305:3.2514194721042982] [-1.7500979122012656:3.4308916413671833] [-1.6724075106232419:3.2547205693279109] [-1.4510342275284056:3.6270169092631739] [-1.1721812029501779:4.2240925244427121] [-1.27982584904592:4.2863250942512847] [-1.1955549555820799:5.476791835434863] [-2.2483350590534394:4.0251416138780902] [-2.3755394243203254:2.7661266174758046] [-1.5838450113751055:2.8379804667750048] [-1.550714334839612:2.0961894412651891] [-1.7862967302592474:1.8313448725001873] [-1.5474431988947461:2.925821863008971] [-1.8050850539420666:3.5519434685952103] [-1.3752366845793689:3.6542359703831893] [-2.6376136102896108:2.6285428274950311] [-1.4410834676311748:4.1487310171363276] [-1.7607701523855634:2.2477106457227558] [-1.4157766931731162:2.8011433242297179] [-1.9221211286242237:4.1204344956797172] [-1.5890696215455471:4.2586407218287512] [-1.5855014947731005:5.2733670464496898] [-1.478901870396502:4.5349750324411762] [-1.7453587510113573:2.5868036492491493] [-1.7535922272699802:3.0628696179542052] [-2.0316148889306098:2.3862855589828378] [-1.7173401241118846:3.5881911935180382] [-1.1181793265743116:3.3542961385883139] [-1.4439559958209833:3.0902124946537817] [-1.7669070956254003:2.8856321980157014] [-1.5500842065921694:4.128582605119222] [-1.7570327996419306:2.9313504077373262] [-1.2548288967364472:4.4250589755947818] [-1.8176313268244608:4.0217265375213396] [-2.0582008117168682:2.4735246997116134] [-2.4205904558484082:3.166544563394925] [-1.7193520165143628:2.8586144735253862] [-1.6966772060825497:2.8421638064240846] [-1.9044229208124974:2.9628666950245002] [-1.3903727423397447:2.8589920008454208] [-1.2063012570714049:3.9192954035700938] [-1.4611486772579365:2.5044596796938645] [-1.8807819743046921:4.2757217868754473] [-2.1247236058749701:3.523180070323507] [-2.1142279408778739:3.1904798454883969] [-1.503212214980298:3.6585819643573538] [-1.3868935784758529:3.7338384579179076] [-2.4468972405554168:4.6852952240927319] [-1.1063690550142022:4.4287540476598251] [-1.3731280633683738:3.4344407440059506] [-0.98395592472117988:3.8871014114501592] [-2.2382301978997412:4.4291021967312956] [-1.961473355441721:3.1986442559079746] [-1.5875643436447555:4.7138047910468845] [-1.3941629864685137:5.0358302781024884] [-1.3906429203890933:3.686580210563112] [-1.1582932920237967:4.5632094697659005] [-1.4409256845376868:2.3233479675909554] [-1.1106965904970667:2.8853400949865873] [-1.7742628030559076:2.4225374631244385] [-1.9093888233661398:2.9569804381986509] [-1.2715739333823206:2.9247182737634718] [-1.2314248372140604:2.8240894463451034] [-2.1392381671485392:1.5280228053814449] [-1.8552259214685771:2.8260119296917665] [-1.4507704505451131:2.1519949467633341] [-1.1122611833976903:2.6396123122273005] [-2.0060077292322789:3.5180310971281759] [-1.6454979501756264:4.07105051440635] [-1.7220253643248322:4.252302141093983] [-2.0709860288913715:3.4262026777509353] [-2.3436333453596538:3.1266715902977134] [-1.6985343738057361:2.9635042888712801] [-1.3342736271363038:2.8004321788649142] [-1.7428810594794344:3.22693998184941] [-1.707077832744202:2.8131614897910318] [-1.4998448809773235:3.304534050674198] [-1.8622746660691347:3.4491401887495625] [-1.6918271357056214:3.6593639987276774] [-2.1055318720899421:2.4748519663801845] [-1.9843851417365117:2.561533231364217] [-1.0020257993875825:2.9259432117906448] [-1.0709961454989025:3.7428686067390569] [-0.97106577855193688:4.4428127293843156] [-1.0204946368833616:4.2783069536064673] [-1.8623014309055428:3.0122381508747447] [-1.6941830598118246:4.2735811154290886] [-1.833935002855885:2.3306423218978272] [-1.2953084250544176:2.9030728499206218] [-2.0359441853490403:2.7401379683424874] [-2.0957941264980753:3.644290835282173] [-1.8266190095696222:1.4863404723098652] [-1.6886452509986276:2.2076709248167554] [-1.3368820294854158:1.9539666513785861] [-1.6928970409668525:2.7396317562929227] [-0.9752045039982804:2.8915500755629844] [-1.006209951202913:2.7107028461085974] [-2.2972708575303842:3.5150467030573127] [-1.819189455149282:3.499402699100401] [-2.1725584535809572:2.534634044725538] [-1.7691574297202941:2.8434869795896911] [-1.8349152445535406:2.8204706836517981] [-1.226900404192695:4.7951053924079803] [-1.7647109654995241:3.4324402583248395] [-1.6616832139835309:2.8736203643530143] [-1.8453856866343994:4.5458748797125148] [-1.7144470871442647:4.5898794138495651] [-1.8525708869162778:2.7364627424460553] [-1.498177051399169:3.0526718264351564] [-1.6826167848145215:3.3310107226855017] [-1.8932054408970393:2.1097430603761325] [-2.4806010748123066:2.5932696078828563] [-1.8751217734609453:3.1071723602254444] [-1.7778762701546773:3.1689753274123831] [-1.1448087585530755:4.1288794672177884] [-1.634246048358968:4.0756372549479067] [-1.3793024030572818:4.0386220772050745] [-0.92799468119801598:2.661882190392145] [-1.3561628971126352:3.1135681530651427] [-1.9197589226833169:3.0348582645466333] [-1.6323270919969224:3.166312194085426] [-1.5000518876244375:2.5278004724968932] [-1.2552626858617173:4.2866514749024995] [-1.969754750704436:3.9843226385517352] [-1.4049117008804226:5.2176372511662894] [-2.4728590465231681:2.2321168779445451] [-1.2886415939424518:3.7542759091503921] [-1.5705191742787008:2.029927022373355] [-1.4660808885454915:3.0867570953484926] [-1.8940113775265142:2.0653762208362392] [-1.4398491401763116:3.5904101263625958] [-1.3690632833087373:2.7421769199384567] [-1.3158296828516809:2.5261731659704827] [-1.7826689942833005:2.1699577303081776] [-1.8645569123440109:3.203665361055255] [-2.7341115803492606:3.4687731196622358] [-1.9431255619706598:3.1708802983026558] [-2.1270518585787226:4.0400010797879462] [-1.7038502544946565:2.9277327240266815] [-2.2442903684055482:3.113089579955004] [-2.0202053043056027:3.6876657158923725] [-1.7222583647527774:2.9235881157003791] [-1.5089137058025075:3.6205572461370759] [-1.9980654808600162:3.1658297936969029] [-1.8021147138914524:2.8794890823370762] [-1.8730518171585793:2.2196207595168631] [-1.9899967696610363:2.4071441773943101] [-1.726534656546822:2.7578235355472174] [-1.5796350751726029:2.4008802732084384] [-2.0085830035701528:2.3146945996662729] [-1.1552404912452579:4.1314573171794171] [-1.378401634104589:3.8254923109298149] [-1.035070291764332:3.9114712718696119] [-1.1282325854236017:4.0183097887827079] [-0.94748272197818151:4.6484437640778982] [-2.0026173757863064:4.6340699864012196] [-1.350567544142895:3.8051894643032642] [-1.8743230589707163:2.0800459427801274] [-2.0864082054907231:2.9979293441783552] [-1.4788343667141:1.898834988603141] [-1.2488948574720198:2.247942290273965] [-2.2436718377810232:3.0652958615895072] [-1.8517711777495882:3.6825231585575384] [-2.919840124531774:2.2334987233650896] [-1.6746316221555122:4.1098936628885561] [-1.8708044904900891:2.3373723139893099] [-1.6671019836407268:3.9215986684252826] [-1.556848581315821:4.3141246797764605] [-1.1341533996549324:3.955457916473899] [-1.2431831124897104:2.6242291949130698] [-1.7983283887677364:3.8255746498340253] [-2.2205770080933873:2.9277105871636464] [-1.8115353198714321:2.9056566850905967] [-3.7913900918920644:2.4634554427563558] [-1.6353372177407188:1.6248698045019712] [-1.6318026456732722:1.9966678111017022] [-1.6624644921409137:3.2207330237968606] [-0.89624481508946285:3.6429406642371038] [-0.72705750269560909:3.7679048328847871] [-1.5517904368457422:2.2301777070142088] [-1.4889882625278617:3.9984546797570086] [-0.80910244752955762:2.2574472445037732] [-0.97543949225933735:3.4205121144732287] [-1.9237091896032628:3.8892258364532419] [-1.6728087780031315:2.8055574790316733] [-2.3686531890507858:3.3919070619997158] [-2.1459177098705458:3.8267358152996045] [-2.0382869009930578:3.049365650411997] [-1.3483055272549136:4.2447172697880022] [-2.1685975690593184:3.0139428410863052] [-1.3892654247475085:2.7441479496173828] [-2.1200286158925556:3.3401166023680013] [-0.91839772143099663:6.64588566691849] [-1.8215874417145883:3.3751111113262393] [-1.7693803875664003:4.7848417537951828] [-1.3154757329702773:3.0483017338870351] [-1.1288278894300152:4.3423187630946201] [-2.1309628438402264:5.3082101673983102] [-1.4821672901437075:3.5090565131440457] [-1.0556535663676592:1.9160860342981665] [-1.901557013869803:3.1616826292241234] [-1.9076106856340198:4.0516381724531083] [-1.5544567683238875:4.1592879971025605] [-1.4993612676598:2.6219381166798783] [-1.4113439189753532:2.71499858033896] [-2.1576980721528716:4.1550147088221925] [-1.2239840132656337:2.7492282152464993] [-2.0018804333978606:3.9277102197543385] [-1.5926493481279698:3.4017014544438062] [-1.470757278956428:3.3608803956829174] [-1.3212011566015234:2.9870658254741183] [-1.6325003948297603:1.6924255475637251] [-1.4552497672954943:3.2309707418189673] [-2.1445609754421175:3.4804287798056421] [-1.1861646450569661:3.9529661841988344] [-1.4639626366131473:2.7407793959193665] [-1.4502857774393809:2.202252246342332] [-1.5660859343284381:3.3923015756237063] [-1.1328724650517872:3.1170308684308892] [-1.6122226881944597:3.0698964737358061] [-1.8301145947760094:2.6387076064710584] [-1.5239151748120003:2.9263438854602635] [-1.4945575158311353:3.1271135236472785] [-1.4839931907717701:2.6407168792884432] [-1.3435484121510757:3.1369585166611276] [-1.250289089501428:3.1274676825327385] [-1.2398378490897835:3.7568806948610618] [-1.7419119343713871:2.1841922635192796] [-1.8935358874943746:3.2326876628490422] [-1.8242475142651751:1.6781407142731837] [-2.3345721318423003:3.0994015292723938] [-1.8062918991062136:1.9292172081357877] [-1.7229054773395662:2.7459529096563355] [-2.1818620452073807:2.3582904797932174] [-1.8870040593099846:2.4354643043002198] [-1.2651886448765788:3.0670813079182819] [-1.0949945990508161:3.4899893682426559] [-1.5706885533130865:2.2543510401170725] [-1.4536807219309802:2.6950661157548499] [-1.8188287256218569:2.8090958897527805] [-2.1003375173892223:4.1744421449474087] [-1.7890448578502065:2.3217133033307893] [-1.9044186001739201:2.6323957406368903] [-1.7185148493022251:2.3601511141334011] [-1.5529687885414398:4.2978195797081238] [-2.0710025135616519:2.8122226407143764] [-1.7155004457967424:3.005286502388242] [-1.9580168245174858:3.742207318789025] [-1.4504740389246369:3.62926739844406] [-2.221021953776094:2.4281100505800128] [-1.9120214299810361:2.6988696851796492] [-1.6049341425869199:2.3725102608488591] [-1.1565914887346251:3.439001512137168] [-2.3654247224110754:3.0801641369328245] [-1.6873787316727198:2.9536311655541021] [-1.6449389767395854:3.4576378393650229] [-1.8517546895846597:3.7946464308394301] [-1.6789123476779091:2.7905928789807026] [-1.2874280575312826:5.2266488957083306] [-2.0720376367618196:3.1586296526584814] [-1.5128642624546995:3.6910197087872554] [-1.9860666563056326:1.1342994946898191] [-1.4881027353752732:2.4981740431574488] [-1.4205287006912259:3.1141387173633657] [-1.0134304634554685:3.6502291596687333] [-2.4654601390294033:3.2553741143748378] [-2.2014240602461506:2.9771684440352852] [-1.6713342402224174:2.7764860373599438] [-1.8439727103386305:2.7949176235639377] [-1.1768096467195981:6.510147465785054] [-1.3125345568023095:4.4516752446890369] [-1.7854392785831821:3.6049941142922655] [-1.3972138733655817:4.6010485317178755] [-1.4665778041580086:2.812590456263881] [-1.3797558764681161:3.3512870778214494] [-2.0849316751848512:5.2824346932497184] [-1.5576651543526967:3.7096043097299796] [-3.480363309313713:2.7930183144567593] [-1.5304177095441607:3.2744384241227729] [-1.6795391917093954:3.357361196166738] [-1.4499871201067795:5.8379785252124909] [-1.5445579356769588:1.4641536939893161] [-1.2612341836141268:3.9758460086391176] [-2.3036727254029534:4.2402420838203492] [-1.6303293542034243:6.9673214960472398] [-1.5617529039871776:5.8307050303527816] [-1.3157073664730865:5.1317801507732996] [-1.6953310083407198:4.3316468344671337] [-1.8402760458789333:3.6537178866927591] [-1.9552392152626368:4.0750464451991482] [-0.90090815730382479:5.0230255712212788] [-1.3685249660013967:6.8296650544532689] [-0.93024315792217638:6.3787117789713577] [-2.2750892569585273:2.6334460501118566] [-1.6861126590878157:2.9476945358831572] [-2.8177613460367619:2.9964849766421704] [-1.0004885989137613:4.584456078257479] [-1.6739638351093729:3.5273506608398635] [-1.4387157403456405:3.6725410436678532] [-1.2803721543168243:4.7824390286917975] [-0.90878701360082914:7.5442812069930936] [-1.5976591444479953:4.0216721125859296] [-1.0507316535512985:4.3345918628549986] [-1.7277626960710133:5.8394340634854345] [-0.94976067537645048:8.7080898427373494] [-1.1761657495989013:3.9913553139479192] [-1.1643470074806122:4.307176384338038] [-1.5636658126564424:3.089025395097019] [-0.95599229097023763:3.4767411669245463] [-1.7983552773703138:2.5686237483792853] [-1.8045748535757908:3.0684869013263407] [-1.6675581470814915:3.0373247005208794] [-1.4927280654052899:4.8088228750730959] [-2.0230958350251531:2.7691243359929385] [-1.729043867032674:2.7593101563008147] [-2.9491007645439757:1.8790470491552222] [-1.1913190035576429:6.0231825838449362] [-2.4914959337877174:2.9886012827863522] [-1.8823715656327449:2.4882965998957225] [-1.3703867769875182:4.7000085690100804] [-1.1451007636712298:3.5379018956054726] [-2.7725473185151275:2.6585559821732181] [-1.9019275515700353:3.2276616475860753] [-2.1570021733214269:2.5786240250373447] [-1.7898175518230113:3.2335742677282098] [-1.6658535039239155:2.418357669006113] [-1.7065044758887415:2.9959918681287965] [-1.6955512809613378:3.5177999396293727] [-1.2408400539660471:3.6503133616649381] [-1.4200460611109647:2.5423346103817583] [-1.4347860689175338:4.0506062913152041] [-2.6061593410799855:4.7489203705295662] [-1.1962560447730537:7.0475053209745582] [-2.5796619352415613:2.971395503982146] [-2.191680420446156:3.6012826138684559] [-1.4796727226103603:2.492365328704651] [-1.2580245964064738:3.3511882034093246] [-1.6420887266312933:3.0057763910093249] [-1.6915403240352458:3.4791819835493496] [-1.6829648218715478:2.073571565802383] [-1.4709149879996679:2.5509293954366585] [-1.1207033217061693:2.6980902289992348] [-0.99199644282726085:2.8482357414660546] [-2.5451479989878996:3.5856014301479182] [-1.672291330011535:3.4527858113987087] [-1.4296179888853111:6.3679937699137401] [-1.3617774188914211:3.5871038826702177] [-1.3145499261814095:2.9352788880041931] [-1.6150292888388911:3.2766795400011843] [-1.9717068108919162:2.6779429992824197] [-1.6514406262142256:3.2058078051315122] [-1.3245835192924917:3.8321477051665815] [-1.2614705981859498:4.9821453459294691] [-1.6171512873208462:3.0723795381418455] [-1.7202466382081034:3.5877271049734816] [-1.6208067544492955:3.3971626146890173] [-1.5372313682267484:3.6540615852100982] [-1.5120544184740501:2.8374229754264868] [-1.7432994439674785:3.3759997615256752] [-1.6733599914376578:1.6557955916569425] [-1.7764611336937808:2.228910664134188] [-1.4873544060509469:3.5257323301552188] [-1.1922931214930088:4.6084935702013947] [-0.94947705489642409:2.8979123963972127] [-1.4760256120727551:2.7858604046312245] [-1.9136481927169313:3.627909439755828] [-1.231619185709409:4.7833741593193757] [-2.209942364994427:1.4930258358309028] [-1.1907840558403879:4.5979009005951594] [-1.2854469267035542:3.4638504201429945] [-1.5349514292528517:2.5320727816226807] [-1.6287756564471343:2.1238110727322086] [-1.5928992412204421:3.0873626716866105] [-1.2607849456903188:3.6976670835851171] [-1.1706532112230543:3.1163710388576962] [-1.4427712223522877:3.2680149227617914] [-1.0755026760029209:5.5907562847384984] [-1.6965629927804751:2.2013040942874742] [-1.4213873701874882:4.0321067310564525] [-1.8407674599039527:4.0840234416371413] [-1.5827417141406397:5.2738916893732837] [-2.013863998815252:4.4673297953194018] [-1.3395256252851138:3.8902651293578843] [-1.9878800612667555:3.9591466900599217] [-1.8125991762483271:2.6773360155086676] [-1.8855357759866005:1.1966239385788333] [-1.4433838828760497:8.2383091557699206] [-1.4227281686365503:3.129952080602088] [-1.4970636153313834:4.1042580657785068] [-2.1401897167357653:3.1912444145131134] [-1.7485942987738456:3.5086740874147675] [-2.3872173535822019:2.5485329145754805] [-1.5570613855089372:4.9860844089847305] [-1.6254398777403862:2.1828846638657442] [-1.7514324997263704:2.5934803028426412] [-1.382020738075971:2.5862945704502542] [-1.2316307552657719:3.5885168102829992] [-2.08783672778008:3.5576543613238356] [-1.232883290031886:6.0352427277152936] [-1.4856882631382686:2.8048472202383716] [-1.5976295026290379:2.5806536172263321] [-1.1183111702513651:2.4657312356385916] [-1.1297220411637592:2.9997304376081919] [-2.0666133305422201:3.0727723927281811] [-1.4904811856900744:4.211220392388566] [-1.5261291657707405:2.2935374392704304] [-1.4200075005314021:4.1586330055438179] [-2.4764350814158136:2.6356081997593717] [-1.4373683357803844:3.8109835502207838] [-1.737356262302892:2.9063458334291745] [-1.4801075204832268:3.3358137414879443] [-1.8315762251028489:2.8531722034239388] [-1.7080729894252378:2.4488649229578354] [-1.5208555443696086:3.0176657703436431] [-1.4429020788431286:4.2327733621931927] [-1.9599262706118061:2.4807842053026974] [-1.8437361761311466:2.439948653422034] [-1.8283763776501765:2.9582570949579301] [-1.9902527735880522:3.1114910578131063] [-1.1866777827513197:3.7524476147156389] [-0.94372942409383909:3.1497431016242912] [-2.0112136313702038:5.2885854326681976] [-2.2159657715233982:2.8437577349622805] [-2.7069047650646842:3.3545604024572682] [-2.1219228012681066:2.1544032065669549] [-1.5639377413413891:2.5317696356577151] [-1.9002029976061294:3.0813101996797743] [-1.5089614676507705:2.0814056864983077] [-1.2020663478945162:2.7188197129553582] [-1.4695496109453712:2.3248813391564718] [-1.3601457716532941:2.5728130428253846] [-1.7431265014558781:2.3817615207798029] [-1.9821055382409603:2.484344901905446] [-2.1910167442067294:3.4556307860103179] [-1.5010195081794226:3.9391969542793208] [-0.90196483205930067:2.8181404265895273] [-1.2683057816365007:3.727869601878377] [-1.7336116012429064:3.0365290168980454] [-1.6147983060318607:4.0684987973593909] [-1.699817353722709:3.5093785770796844] [-1.6462515204198158:3.9949618462181422] [-1.507627739191076:3.0799223038627086] [-1.4663255817736061:4.2256409401661648] [-1.9603705625376833:2.3854292957492333] [-1.6802701898660892:2.8069840017908305] [-1.488560786167235:3.64880455909279] [-2.0733529415242646:2.7827999261599445] [-1.5105280894144892:1.5472311328619377] [-1.3037126261749108:2.2888062488118157] [-2.2394674922443509:2.8334942744626295] [-2.0256370646699242:3.4409912759117152] [-2.0575965001454346:1.8069623563131132] [-1.8834337569854129:2.9943245365538398] [-2.9771974033191921:4.1549723374437244] [-1.6085089561179466:4.4396469015194766] [-1.6097389357723815:3.2516236563939098] [-1.2512568009068386:4.0194240614435826] [-1.3368569385240971:4.6790376025019089] [-1.1138820253264998:4.199463388104693] [-1.5254413931307726:2.3937405479370639] [-1.3943696093300098:3.0505079669699442] [-0.92204497704584554:3.0529459835742139] [-0.86149427028731773:3.3456965814496025] [-1.8470222603737676:1.7050553651394527] [-1.5656705702821072:2.5038221439616062] [-1.4464663138118186:3.1915232028322258] [-1.401422235758538:3.8401105179561261] [-1.1862692086530446:2.4593844718935598] [-1.6461356931755484:2.6131031743005178] [-2.319698026386674:3.3635069112216391] [-1.4010565497196887:5.4801763005061819] [-1.9628474348927163:2.2652053901236577] [-1.898943476447849:3.4335558483608559] [-1.971482095995942:2.4641511115086825] [-1.3479927677162042:4.405434787786465] [-3.3456003325008097:3.3310921985318767] [-1.6212241465570225:2.4670152397658409] [-1.8124138088280708:3.2098902461240755] [-1.4559075655854201:3.0227579325362965] [-1.7056170847426593:2.6162663697807784] [-1.3856916216616073:3.4730264480564701] [-1.354773106581209:2.6887341412444501] [-1.1335681042514372:4.5492254856994068] [-2.0247786935250121:3.6789632529758594] [-1.8913202084414857:2.9887076630492033] [-1.7647047990307136:2.0105524394168164] [-1.709666046170832:3.1123828673689262] [-1.5792559369360015:2.5240943758241934] [-1.3381288220866552:3.8679616538959136] [-1.9018018121537501:2.1289808920205386] [-1.2962327416960864:3.3610489611246792] [-1.5160944490498498:3.2782848406377028] [-1.5844497739134193:3.5716502292272385] [-2.0199071245387836:3.2000984649805475] [-2.0704200483798818:3.1012987743027973] [-3.3499321267971558:2.40168048561116] [-1.6817003291775114:3.3410683824420238] [-1.7147839128288138:2.8737158756596726] [-1.2745662531699162:4.2279534470551017] [-1.6186023242688208:2.5056493618072837] [-1.5748428991777346:3.0923929272676096] [-1.5815244284399061:2.9801619124644634] [-1.6116379029893819:3.1085785504668593] [-1.6609879038324995:2.7097974296209943] [-1.7974772346611618:2.9812964348259361] [-1.7665796129839808:3.3306324330374006] [-1.2915505526517546:3.2979836491732129] [-2.1948365240141015:2.6867261101850533] [-1.5853504996216636:3.248815668204736] [-2.3006237300621382:1.7288322905981572] [-1.1206656719847965:5.183035766121403] [-1.8577291539395517:3.5127709338576296] [-1.7256329001519795:2.5178327446568507] [-1.2398375969089415:4.2002053645483235] [-0.99155176611500484:2.9394704315398807] [-1.2112681712240325:4.1001908693449556] [-1.2831013629331807:2.8265881857652913] [-1.4176916399300252:3.1475533035447723] [-1.1261727505167927:3.3222692014278303] [-2.124160111446368:1.6213063423190595] [-1.6597708690066388:2.4185169178166435] [-1.3530637928169995:3.4278818363137122] [-1.1640375003782835:3.8106838307981561] [-1.6639685532135779:5.9943724696805765] [-0.95459314272687035:5.4725311233090057] [-1.6425137283319704:3.2717900059902103] [-1.5929281937485185:3.7146215123172848] [-2.5247543867137261:2.973557828237456] [-1.4356999391543257:3.3612170653154738] [-2.0435160770268839:2.260886513849826] [-1.78787835823945:2.4856098614025508] [-1.8516604253069302:3.3951188077715089] [-1.4791502191612085:3.6844993032628737] [-2.3636261333648343:2.1368184816456615] [-1.4793172293945693:5.0417284981901949] [-2.1965449915589956:3.9831072788095243] [-1.9507353949882649:3.3553663954082165] [-2.2806665740988845:3.0223183288550541] [-1.2246564091885705:4.7156358919289207] [-3.0194740121356274:1.9877366181842699] [-2.2558328253255446:2.6252114521158769] [-1.4300782328819857:3.3463121055930101] [-1.4312850954627576:3.3963413856586588] [-2.5873519484409595:2.6472777067237385] [-1.574979162677967:3.4395519882784207] [-1.4042081032966951:1.9471443284797296] [-1.3609830864463117:2.5369062129568136] [-1.540652142107259:2.0296892316709538] [-1.3216217245088082:2.9758805941783915] [-1.7751594595034246:2.3058418495364155] [-1.6608614137716042:2.9069580289041625] [-1.9967507616027538:2.1164366119438447] [-2.0077393325305488:3.0005530062282979] [-1.5212568671740228:2.9660576665235134] [-1.2167117182720226:3.6795345297345183] [-1.7190584080258395:2.3936598262187663] [-1.5460425635187633:5.3766964087014548] [-2.4767858917052474:4.7569606203055548] [-0.99033263831628715:5.049785851191599] [-1.5648516164581143:1.9310537742646487] [-1.510956799195851:2.7560833109751024] [-1.681428015531985:3.4800281681954712] [-1.5268244599761096:5.0687964047834217] [-1.7991391753576298:3.2560371956988421] [-1.9120777414107826:2.9055552531687581] [-1.5197050201805431:2.098448799263938] [-1.3730677467316417:2.4848888463414003] [-1.637564305721942:2.8919753807281192] [-1.4594051564936417:4.2293701152302399] [-1.8273663413690906:2.4156003166630806] [-2.3856805460053874:2.6996589297630229] [-2.0836756711188738:3.0493948931284698] [-1.7406225584000741:3.8137579609184846] [-1.3895039498729631:3.2312977471300108] [-1.3077901277241393:2.6449589672424922] [-1.6046810129115183:6.8678085291975552] [-1.4600880545684303:3.6200868637605086] [-1.5975128169076702:2.7607621065165833] [-1.4536037224706408:3.3041448708947496] [-0.89689100149219403:3.7319287085948654] [-0.74305628080108255:3.1645531134298843] [-4.374519208912969:2.9684581196915691] [-1.6198705603046986:3.0754456872591951] [-1.1587415011234341:1.9150272312550034] [-3.0347985670598421:2.7003503563357318] [-1.7548210602562575:2.9974044140695306] [-1.3073068894729893:3.0645078288330985] [-1.9025927484320606:3.3791801273838047] [-1.5695674233322174:2.9295937728435946] [-1.3246193340959878:2.9077391858199775] [-1.3213186546230016:3.1522842911316697] [-1.2913721060250209:3.264020479125028] [-1.5509843133405192:2.8941153677135505] [-1.0882659141305646:2.2246609313692596] [-1.3954195048096254:2.7408764390509566] [-1.8716287333866823:1.9596053365273924] [-1.4161049930593741:4.4402205645664719] [-2.0219845787962245:3.6038016362196643] [-1.3150424311056685:3.0895033665272296] [-1.7998591237940025:3.03786572870162] [-1.6483522574994065:3.3139394744117423] [-2.7910104185034239:4.29932602024014] [-1.031350252685451:4.0435054545348965] [-1.3340653449626994:2.5402241439752351] [-1.3167342055117124:2.639529689387909] [-1.6320601245248676:2.2380419355046541] [-1.6213906436856582:2.8039795869066473] [-1.649957375308593:3.3479462497421864] [-1.7716236163606576:4.2825879649403644] [-1.5899237112095359:2.8547767981414225] [-1.490676604556479:3.4192550469165091] [-1.5750488639046858:3.8614755767650553] [-1.8495592724668761:3.1108966812815422] [-2.5272640637150907:1.9745263804835678] [-1.6732483140876646:3.1023446266824766] [-1.934452101276563:4.3297952467865626] [-1.7417671918190749:3.3837407888525779] [-1.8267339397276789:2.7594926259834436] [-1.494963932823266:2.614925151654631] [-1.721205900510917:2.5725598342834193] [-1.5371007564435109:3.8558056310829238] [-1.8519180656478154:2.5361849593338293] [-1.5169866335011684:3.920077069097935] [-1.7504666683162811:2.6185386113289217] [-1.6934754803002148:2.2582415898845891] [-1.8317353476168234:3.0847086477683892] [-1.5348052289687579:5.1250872365696214] [-1.3216558690298699:4.4911582391123313] [-1.2724372797257786:3.5796361755782424] [-0.79329912059185648:2.7694496345313304] [-0.87793420566458147:2.8293624669408861] [-1.4378033573952815:2.5943890381971118] [-1.4664809087745372:4.3595950149270433] [-1.6010471368541033:1.8896449549173771] [-1.3918006338530671:2.771728276726757] [-1.5086633130948643:2.4262696464087523] [-1.4586057987697056:2.9257012857952773] [-1.904582089980867:2.5297063534353277] [-1.8550613458416798:3.3121042107743937] [-2.4159263418884946:2.227224053479758] [-1.5504555862537241:3.6697809116092261] [-1.6778522151577726:2.1144642026116829] [-1.6032071988035874:3.4665539755905583] [-0.9991578212152159:2.4529969873241546] [-0.97650042423603178:2.7404627199489906] [-1.5263455965312476:2.126223445496545] [-1.7253665556121556:2.9240111006677196] [-1.6884910871012646:3.3317632875934202] [-1.2761716433512154:3.8413496193997592] [-1.8791454282781785:3.2275623721463664] [-1.8152472619144142:3.541766596983198] [-2.3186077326053289:1.9060740568408094] [-1.7900414576780406:2.9866841261825878] [-1.8214288922814679:2.2755670720774002] [-1.8690465965984837:2.2290087121249029] [-1.7210616184798571:7.6046702866624125] [-1.6050540377254896:4.9832109548390342] [-1.6626444729277738:4.8797866518278949] [-1.3042286256177944:3.060165129320747] [-1.7925041552140693:2.0337611114230199] [-1.5424470444539882:2.8577960171719545] [-1.8132566855227052:5.0942497143407754] [-1.0756871685041463:6.8108694961440159] [-2.0583279508131116:3.2258873880699515] [-1.8532015109496127:2.7954182528169502] [-1.9495555367889787:2.4138343307998071] [-1.7628717131547171:3.7109863994236449] [-1.1487517954394426:3.2399007451619148] [-1.4872755698229017:4.135870896263472] [-1.4784983619622274:2.2154664759289995] [-1.3369307674613817:3.2578439987389829] [-1.0804581357512313:2.9624058424227599] [-1.2193064735519989:3.7856259601072111] [-1.2583051221303778:2.8425123098973497] [-1.615391965890729:3.6800899615757521] [-1.6163647681186526:2.450655514075545] [-1.7599873417559588:3.725376519996952] [-2.1951565193775533:2.7958229848576819] [-1.7442107045047306:3.6850854610369392] [-1.6105063756540081:4.9685879646982078] [-1.4867211061593035:4.9127913190012125] [-2.0359012815144961:1.9961416016854259] [-1.3245281575860148:4.8187477774606808] [-2.8781976956807056:3.543756698488409] [-1.2605432657320321:4.8462126873834039] [-1.9716836720265489:2.9746777853193058] [-1.1339327872357217:6.1514792022116902] [-1.641712648326584:2.5475027265240429] [-1.226585644640688:3.6602511201488004] [-1.6352197347951505:3.2112136356424643] [-0.86633313242862808:5.2322423805873521] [-1.5581787730292749:3.1819432146452109] [-1.1115108163020364:3.4915254998293328] [-1.6320086589094598:3.2772677458052426] [-1.5858571938902051:2.8288067699551793] [-1.2393905482798324:2.5270050443738392] [-1.6830181009153511:3.5568716874309732] [-1.8520272114255827:2.6737078935632619] [-1.815817342171494:3.4837209599889487] [-1.522589668128709:2.3749771586168982] [-1.5364800117556132:2.6844604574609194] [-1.5879745590451975:4.9536903760237259] [-1.3749041874794892:4.8657371542686549] [-1.7351191630523968:3.1664505009774486] [-1.7399783078087621:3.1109677087154499] [-2.0532257665468756:1.6217914321627691] [-1.1148351611920828:6.7655346304322466] [-1.955392112322814:3.5961754042988261] [-1.1530254049191035:4.9113175899658286] [-1.4279682212004403:4.7039187318158762] [-1.3017771255845556:3.8645459927395422] [-3.124169984149316:2.8631812820570106] [-1.7846242705442317:3.5952303315876217] [-2.1731951142328225:1.543542868788526] [-1.9667717898239712:2.911706847161188] [-1.9873004633475082:3.1419590691823478] [-1.7117594347245493:4.0561376667026039] [-1.2270556984444412:3.5917831812803196] [-1.1280999371732616:3.691333858707607] [-1.63618954848947:3.2322750154788897] [-1.4852864380386979:4.0930935765893919] [-2.0530623959295147:2.4858822717171321] [-1.6687292115879346:3.9936993202299131] [-2.5062488944395418:3.7142489280435371] [-1.8002004217987089:4.1857572972074619] [-1.7488423392605665:1.3414647140840432] [-2.0509107371892852:2.9718409619357509] [-1.9769486210774934:2.2752260756073066] [-1.7523517723002879:2.8938486562792787] [-1.5541583117840483:2.1176426999420865] [-1.2148868796557497:2.9396004984880353] [-2.1269169060334319:3.4566785613363753] [-1.6393758446119604:4.3916659135343918] [-1.4879291573357247:3.5002157825710194] [-1.1972594679271784:3.8074549706823206] [-2.0951076550995138:2.9277046977510852] [-1.7932473921891678:3.6194052355967932] [-1.4236003236227601:3.5633570130942753] [-1.3179066219553142:3.6843999527700171] [-1.3536050109157522:2.6840337253647304] [-1.3956582704115137:3.1290507802087313] [-1.7903274140385994:5.0425385344195375] [-1.0111106712825344:5.3576508410840518] [-1.7018452250046707:2.3857540658733778] [-1.6521851370691585:3.0020848043919042] [-1.7602921095173534:2.006155755906478] [-1.4580082688011571:3.4982409394219731] [-1.5427572752822569:2.5190287442361594] [-1.0931114601577767:3.6551240164066243] [-2.7324904748931842:2.7785982003706344] [-1.6104210838056474:3.4330712687996905] [-2.1325668946892029:3.4929388523798797] [-1.5448310734648769:4.0781354261768064] [-1.4775057274959127:2.3406890862824161] [-1.4277864167567578:2.956521943890678] [-1.7442087228182759:2.99924171977207] [-0.89567023930883272:5.0613712349788385] [-2.066550994979298:2.6215759123552274] [-1.7054090287628596:4.3286362026364387] [-2.0890115653592853:2.1073690562338032] [-1.5928237328862478:3.4954543601942478] [-1.6867794577434496:5.205561821900945] [-0.89366743826789541:5.8423997793593285] [-1.4412436926017738:2.5445539887579596] [-1.1894648101525582:2.6966747269559908] [-1.1475696866102125:2.3094098786662811] [-1.34270429674646:2.8692639048003414] [-1.5499267422590077:2.133175657842012] [-1.2835289063165869:2.4045848724539951] [-2.9795029078658484:2.2192181222427871] [-1.8305719025554459:2.1744765972162878] [-1.7616203940734858:1.8544178388987556] [-1.7582286343943874:3.3245457249163266] [-2.1213392778547959:2.7951646811811144] [-1.8538882688620963:5.7571507648049876] [-1.7622586888208465:1.7097527406354949] [-1.7398729030396651:2.8165559982427091] [-1.1953521531899574:2.9382570949321196] [-1.7509794716972884:2.8588298503755487] [-2.3061171155300038:2.333277989989945] [-1.7327414265729149:3.0645129659638162] [-1.8948998262237862:3.2979079214692826] [-1.7789328772656392:2.8544005491157249] [-1.7498467032520468:3.6118186882415841] [-1.0113185202395731:4.7349389990236102] [-1.3852087278707175:3.7654439482503386] [-1.3704104089675992:4.0787147837838003] [-1.8572819724269973:4.2820294461323378] [-2.4443399918449669:3.6087412122612994] [-1.5633398111839973:2.9610702135031648] [-1.5800073909249355:2.9877639609493758] [-1.3502462603130958:3.003938547580717] [-1.1383753699551287:3.7808891555509136] [-1.4474599499724714:2.1851624454162737] [-1.597591888684387:3.5593028852242612] [-2.1116100611377857:4.374665694078967] [-1.0721972348464432:5.9871665502916844] [-1.9259800808707865:2.9184434471394427] [-2.1619970745741299:2.8479749757138602] [-1.2700090958482291:3.9331020151872949] [-1.254967285698374:3.4806996467046938] [-1.7527412342448447:3.2748736487648693] [-1.3350434178263242:2.6562451457222536] [-1.8783919291181845:3.7619973553554904] [-1.5399439447891485:3.0431916047287819] [-1.6028302278500579:2.1732022543097038] [-1.3676409921039032:3.386755466760512] [-1.7098453370435709:3.1183129103918636] [-1.5648611756047075:3.668411440775655] [-2.475102878011942:3.2172836869822992] [-1.8800769886436302:3.2959901454110225] [-1.5429633973260328:3.8349675301456676] [-1.7418847310419123:3.3076305693641035] [-2.0290502804762758:2.7371240346243644] [-1.9739904567820485:3.9976069044899094] [-1.5737391633384659:3.0119703489759813] [-1.5898882570885167:2.9358040383747155] [-1.7335153523502114:2.6116915602995956] [-1.4722434843366865:3.4710945550855983] [-1.5289596649987418:2.4476161051783811] [-1.9441969776410013:3.3618225614364667] [-2.3062556739344786:2.2359425664396531] [-1.2940649587574276:5.0814864486475235] [-1.9106248001675634:3.747706299421885] [-1.0430942871702338:4.465692443396895] [-1.9838188927043663:2.9046589176523754] [-1.6931304414921122:5.3258163644538641] [-1.3819822122443257:2.4307873064636127] [-1.3471771875127472:2.8753923825710377] [-1.36997475396452:5.3874127050450431] [-1.0737427136025379:3.5859053007663908] [-2.0667695923621809:2.5367099372765005] [-2.099245340927189:2.9410895968075086] [-2.0426932106154743:3.900045698604703] [-1.2863550075758903:4.0976124239750504] [-1.549684084920987:2.574372087791363] [-1.6620663484030522:2.8240196437216536] [-1.750699712786161:2.4763297123289161] [-1.728408119784125:4.5535653167429944] [-1.9019063371598963:2.4946078860212801] [-1.3706316871298398:3.5816787855803334] [-1.8855259592502454:2.6360545806771158] [-1.853316973503037:2.4852897150729807] [-1.8205845142954198:4.1343889913176675] [-1.5368157204390072:4.0404056064844216] [-1.4562908389246088:5.2241410390123555] [-1.1000888637023252:5.2371747607174965] [-1.7020520893828934:3.8645797968234015] [-1.4752086358483614:3.0645459409588942] [-1.488788193395018:3.1049599210324552] [-1.610005984809775:3.5687318347407291] [-1.2618917838082815:3.800986517396634] [-0.97897643549264934:4.8917812625558268] [-1.5308775491114925:2.2202961042364184] [-1.4795374726891715:2.7445518320556745] [-1.4993933141218057:3.7112369014930504] [-1.3320153490134585:3.4917215463541718] [-1.3002836240716418:5.1994007674095633] [-1.188418277479331:6.1496182362249732] [-1.6501023605344576:2.0854301989588406] [-1.6863938448647919:2.263157090055099] [-2.1202566985997655:3.7028065388797273] [-1.8241947715672346:3.587142228775813] [-2.4729979464414682:3.0707462422344429] [-2.566607075743629:3.100999293363873] [-1.7624281261696364:3.7026352926911361] [-1.3852743760792976:3.3706637496411078] [-1.6598387923810356:3.3967060850680424] [-1.4416049677712053:4.2716842997838897] [-1.889494033499284:3.1333960652878416] [-1.606287358585168:7.7592348021114459] [-1.8833831232092402:3.5929480368741742] [-1.3495058540469542:4.1240073518872604] [-1.6996118270824612:4.8599477768898209] [-1.5302094949831853:3.1167782948956004] [-1.9375855502884776:3.3219686150702872] [-1.6631136839807497:3.1618000271291735] [-1.8715265536163481:2.4711161497336684] [-1.7864933895934036:2.5753155892265429] [-1.8102748514260396:2.7154367051993513] [-1.8667506166033416:2.6461980930962596] [-1.5558447886105526:2.3381731715341059] [-2.001703154961529:3.693548432306816] [-1.5835149832889797:3.3833054079990772] [-1.5390986561618649:2.9606085180981703] [-1.3379075343236315:2.6503179538167041] [-1.1537239875947656:2.7747127228470947] [-1.5718313270259914:2.9393510408985573] [-1.0371630960522362:3.9722183767735739] [-1.395739917197468:5.6137714139700394] [-1.1101022234409859:3.5687501503818249] [-1.5805199956766434:3.8163992087259455] [-1.4865876574540919:3.6865629582126549] [-1.9223156456993922:2.8665140278741803] [-1.6236019030914135:5.3608812312396861] [-2.1124791921891082:4.3525298128148453] [-1.6896303355507094:2.9640997171707899] [-1.5421774182075416:2.2571744344966826] [-1.1744326537079404:3.255855133411691] [-1.590400931572685:2.9469270111420194] [-1.5077364371161617:3.8982800659871351] [-0.95461119602046685:2.4448330095416164] [-1.4753306067532537:3.6059695920564421] [-1.8810316426746547:5.1466077701424071] [-1.1226371376371236:5.0934046330945222] [-2.1920714501496983:2.1413295869928857] [-1.4848590054768793:2.9698362389462614] [-1.4955632884521683:2.0211784362364957] [-1.2662580821000418:2.5012410068246465] [-1.5135937260591905:2.7263578379516482] [-1.4799788531748463:2.9103824436975332] [-1.3907722845048103:2.4241885245707002] [-1.2830164150321466:3.0070398831883813] [-1.5804309116133695:3.0529829709451217] [-1.4314623893007183:4.6078668314927915] [-2.177602253296048:3.9707575103440735] [-1.3502658914440109:7.9764450972698118] [-2.7552224461187929:3.638421700943038] [-1.5951261941407213:2.6344662270031067] [-2.1245591382239417:2.3949459617811701] [-1.9597992938063054:3.3822310787262526] [-1.8297587863174039:2.4683340997062828] [-1.6368141877127209:3.0138952381867501] [-2.2560766774604284:3.6133997639324087] [-1.4362899049492455:4.7704965384281195] [-2.0283407881356164:2.821942217130518] [-2.016203108577828:2.9789239062041579] [-2.2494139982032877:1.9177432188238976] [-1.6704798931076079:3.7213506459570436] [-1.285266850224184:2.7091867586039191] [-1.4392514348313237:3.0996353229058764] [-2.4517700245339515:3.1709757248282409] [-1.6367100613314758:3.2663173426021066] [-2.1426564805381156:3.1954390304988105] [-1.6327501035080532:3.8190150406523706] [-1.5330618524357136:1.7459380314841624] [-1.4838787440831456:1.8182162914951554] [-2.0532905873750571:2.5820459852676207] [-1.8432316440253982:2.5270061022049979] [-2.3918986224709591:3.1398294896098333] [-1.8688619665367803:2.9295828716067684] [-1.8699823883926534:4.5498297318433254] [-1.3499397641953093:5.4776113538205307] [-1.964677181194783:2.25394451105287] [-1.7194538817507279:3.8345314151432466] [-1.8621432399166993:2.7401490794177996] [-1.3174582473931524:3.334156522888569] [-1.490490104545974:2.4335446595481862] 